{
  "config": {
    "layer": 3,
    "inputs": 784,
    "hidden": [100],
    "outputs": 10,
    "conf_JSON": "[784,100,10]"
  },
  "nodes": [784, 100, 10],
  "weights": [{
    "cols": 784,
    "rows": 100,
    "data": [
      [-0.534064661923204, 0.04854223486864789, -0.4824517255010321, -0.45842221450785314, 0.2942562827877335, 0.9222947563118992, -0.5860891411715065, -0.14724311031596962, 0.5690841877317808, 0.6569511256502251, 0.9605589074614808, 0.028575934088820275, 0.7684971086036515, 0.2991339369613963, 0.6164265570535657, -0.2626026585449514, -0.2738056081606306, 0.24892598032590527, 0.7716545642851972, -0.10872780752811022, -0.4305547520840822, 0.44630008736640314, 0.009808783851013267, 0.9181286834820069, 0.8774663989485832, 0.7029298361339075, -0.8687696188874133, -0.5633548747845653, 0.9345046125646045, 0.44493945845369987, 0.47805932675283036, -0.8318814481006861, 0.1786646627503772, 0.31817134977300754, 0.5318473666846948, 0.9300236791819484, -0.7014298601272049, 0.22711491574827172, -0.5512705854111115, -0.237377938777189, 0.023312772559574868, 0.6860994851526796, 0.27424803514190915, 0.3423082667590268, -0.8984711393262519, 0.7328616562131876, -0.5327980729079818, -0.3621827531698365, -0.026455558660784754, 0.8035447972032967, -0.32527006688021215, 0.8831879651774184, -0.7986134298010251, 0.499778276107292, 0.9551119157224254, 0.2714022977527233, -0.2896732662700916, 0.8004081103140906, 0.3364703118743239, 0.10944033863726237, -0.5031204366750694, 0.11535963144143241, -0.22314962622154022, 0.8403434026771504, -0.672004912736291, 0.6804626337156591, 0.31062873771937966, -0.6833966311718188, -0.909321189797988, 0.05219440347106282, -0.0064878372107131065, 0.837009931944611, 0.031083908748802867, -0.09559430156757043, -0.21304004973942675, 0.3273103838585777, -0.7890891940453212, 0.3150693496578272, 0.8755652488619923, 0.6558287133906217, 0.5957759329722492, 0.7798381274934191, -0.6232228062931068, -0.6065506099584984, 0.43449153936415685, 0.19459680231717966, 0.39541162360244736, -0.25719512994242283, 0.7645136375770298, 0.45511729314733057, 0.9829114464894824, 0.15530037454140483, 0.7586497995985586, -0.3665067888977658, 0.14459148563699867, 1.0238880298855793, -0.29824142971910367, 0.5465774887246132, -0.4743558479504147, 0.780917990583526, -0.044094360081872994, -0.05630578997870545, -0.29773388417867863, 0.43648408342271494, -0.2940738929078985, -0.8052652901758157, -0.9492231806565682, -0.029337561133163895, -0.48875934382876285, -0.4522475456262036, 0.006704031778579252, -0.29883545301339365, -0.8884820995897723, -0.8896628948767996, 0.14579558970904485, 0.7702196382922608, -0.3303211091369853, 0.09257540058017917, 0.0036841548448358, 0.5436989883056341, -0.9295438725362616, -0.7517614535596525, 0.31056973433080853, -0.8216979532132448, 0.6356375042099658, -0.718149704297766, 0.1595695139961157, 0.564003467019622, -0.3862847732779713, 0.610657893645325, -0.5981767571718886, -0.10608393246417722, 0.772129644458258, -0.7258438251280973, -0.5497793300480618, -0.04258767403872255, -0.8147514801456623, 0.7438935244712067, 0.8694669274261294, 0.6865646359704275, 0.5952510661940164, -0.35913416301348655, -0.9827129988378994, 0.9239436579394854, 0.9173374231625788, -0.04106803025339071, 0.19339367305070682, -0.19435627578015444, 0.3520135510525839, 0.8174749303589125, 0.03531629953809069, 0.8319671326706762, -0.29219143327295394, 0.7395740215261941, 0.06942018294519524, -0.3254907975097966, 0.7229724726858767, -0.11468405792777121, 0.7734309895743025, 0.8033094016040917, -0.1333276753192322, 0.7847963077196697, -0.41640957040585974, -0.6565605150341185, 0.3654770072130809, -0.8059011075135036, 0.8886797862453166, 0.8875323226684761, -0.8313429680856518, 0.3678969392056993, -0.9530688632660274, 0.7008011822801749, -0.5248679883163594, -0.9312650504849774, 0.19571538945403727, 0.6263523196546106, -0.512505728902642, 0.8996516429657363, -0.61224421615726, -0.14436767909519888, 0.23526540225034626, 0.2532438280990085, 0.28448266503600267, 1.1249584628232776, -0.7508785471552429, 1.0878438602149527, 0.20726050440745064, 0.8575351488099652, 0.298014288935387, -0.3104295932558733, 0.08894640951495131, -0.46420015136464643, -0.14315996785598786, -0.09796729679043716, -0.9147529879491293, 0.1208127394856299, -0.8676989427751244, 0.3655280342922682, -0.8896118314272579, -0.7893649423211994, -0.19269419932889723, -0.02667907766625604, -0.5935455247182748, -0.5280000271490812, 0.7805438189685562, -0.0686969224156744, 0.6110055386734053, -0.1476185396777315, -0.8473066875619831, 0.06267712642808161, 0.7149010287471772, 0.885167160184761, 0.8281115428358884, 0.506582066207203, -0.1829446093341048, 0.01530335027323276, 0.03491585170949001, -0.49289161917005947, -0.6266485785668491, -0.9844569573457611, -0.7696489330123584, 0.9111815829622566, 0.588330661832399, -0.7131942031833872, 0.2544367392028925, -0.7795673670239458, 0.27982942193510063, 0.9107964655572997, -0.2361393539448519, -0.4486839163539006, -0.668110451576646, 0.8869972560986404, 0.3116012199757578, 1.0561558177050918, 0.3503792103044555, -0.4260608354884364, 0.5703236735518291, 0.6875714363204046, 0.3013694356030505, 0.4431024855430773, 0.37286776861526655, -0.45124218734378574, -0.350015613300941, 0.3762622896090584, 0.37488602419354067, -0.21278406664717764, 0.08751718141062938, 0.03393607592659965, -0.46490639218151225, -0.6842319960986661, -0.19452733763236604, 0.06679459763003452, -0.10085641836257507, -0.3059923605323006, 0.16872545210653533, 0.6567050507981763, -0.250981498386595, -0.7139942823668223, 0.5802359609213317, -0.5955634565179857, -0.4253908417268425, -0.7094518608038364, 0.822427103366333, 0.28076383986210957, 0.48620925282767696, -0.5949390360989031, 0.3393295415971248, 0.15408597369436997, 0.35903461672701775, -0.6630067495753356, -0.3366686711989848, 0.7441990496176265, -0.2916363817935263, -0.18012240957053002, 0.741374134464976, 0.4119224730927066, -0.4473672675771554, 0.22582374286656834, -0.0055652917291952805, 0.3781710236050982, 0.9257170040710446, -0.32638729984249415, -0.2521227727966388, 0.9093542127865328, -0.4678498715267561, 0.23253114990965257, -0.4270418774145336, -0.5950386312508787, 1.041100713310589, -0.7527835291699996, -0.6651226825533753, -0.4683677999154441, 1.0175328442194493, 0.5046904179978947, 0.4859446421945264, 0.043255641939121264, 0.8186338716200513, 0.15054904002721015, -0.3468285066309145, 0.18344068730317462, 0.8988947970565256, -0.7351785410287945, -0.7629720948114851, 0.2627315292528547, -0.582958008189859, 0.8574846524164553, 0.3615839562629187, -0.9051091829146619, -0.10239776758639153, 0.9325811717166804, 0.03737981344223101, 0.8712936348760899, 0.6501629366731477, 0.31705433463591776, 0.6314050318390888, 0.13938917757492053, 0.7949699643239996, 0.22553287089411508, 0.22249618112122885, 0.8863889980293228, -0.3439148521516063, -0.33031688281844024, -0.007306160498319666, -0.09812360700430726, 0.45660450973942496, 0.30591941082455315, 0.45074333431776714, -0.8872426360813952, 0.5041891862476002, -0.7720256420607313, 0.5328508698844879, -0.7215432515853673, -0.48804312052014664, 0.6548092904222228, 0.30342770044302536, -0.05950939259119184, -0.7177754460047545, 0.6907190158196974, 0.371388195734191, 0.9425836391448965, -0.8425272850266161, 0.5673110505351515, 0.8523426331463803, -0.18270232740115425, 0.3217143942378871, -0.1289286813998444, 0.8755346144990646, 0.024570873526712562, 0.5953839607213927, -0.4957560610812591, 0.4019525347418917, 0.9442346220853368, -0.6976462161667313, -0.45249903461892915, -0.7993518612218649, -0.9488612490639428, 0.7388305463267416, -0.8621024453458747, -0.6927200590363778, -0.36233685145395905, 0.4459065837657172, 0.5486350943831739, -0.05734574162616512, 0.255088624820677, 0.25178726239128724, 0.9606905279487881, -0.2553972397153096, 0.16784784784448795, 0.362172709830168, 0.1306731128571083, 0.8627180449675894, 0.9247498772964976, 0.31310667598197894, 0.25607752719146665, -0.5499371684401132, 0.927590355537828, 0.7319495781998762, -0.5647076241046405, 0.2365096446530336, 0.4282934376974871, -0.620457434162168, -0.08788113657611722, 0.5725693688469131, 0.29255355303550085, -0.5205737718497401, -0.3738570234798658, 0.18423198366916507, 1.0164602886476914, 0.8828517098402058, 0.27964068087680277, -0.07405378541412239, -0.007004171584965454, -0.8777031928259316, 0.374728746020308, 0.30581471744788236, 0.32601564264736854, -0.7993195628303967, -0.5996770102710004, 0.721984007813899, 0.5652959477534011, -0.5584986093696638, 0.19542711729370557, -0.7062237664204428, 0.7917307968196098, -0.8546232890269799, 0.5379220422288251, 0.8606348978969075, 0.03739910677573835, 0.02421164687790385, -0.12265965395314454, -0.047568097322713686, 0.48069504678680347, 0.6166419041669493, -0.4659041640224208, 0.34022205780995635, -0.11227024389800155, 0.6897858202545161, 0.5596519752274401, -0.1150266703411986, 0.983406630779466, -0.6691923565535319, 0.4433094032751066, 0.9610076986833757, -0.5136894230830239, -0.7506494606015607, 0.7247723104199496, -0.019256123247833035, -0.031979881126227586, -0.8424849094140948, 0.46562073783702457, 0.034783766709627434, -0.7990087176815371, -0.5494145553439815, -0.4763029038456828, -0.11059441585393076, -0.6785185951853144, 1.1349644025563301, -0.0054552399475799864, -0.30355605908336675, -0.07342043810560336, 0.7160841820459316, 0.023284687139643535, -0.7202868396283121, -0.8107668485320498, -0.3484965593497018, -0.21621565497141126, 0.09498766617939886, 0.7616975864972363, 0.8805216496493782, -0.21053194964241662, 0.34482827650813747, 0.8523012658763697, 0.2007340469587189, 0.30879973016095263, 0.6785426213364958, 0.33029890967613385, 0.6617261195719956, 1.0735326245641899, 0.40711744418704227, 0.37912812146665514, 0.28952288319626845, -0.5474779138788861, -0.2864211646277167, 0.3177934578092351, 0.40676894799022106, 0.809436581805062, 0.3987841646705552, -0.20061886784066532, -0.6866796744380199, 0.9315017724351814, 0.032507612128731184, 0.6179329467991156, 0.9252532738182171, -0.8354858516530033, 0.8651034465565827, 0.17933882817388588, 0.7132554298978574, -0.6072997178157284, 0.5478261439462939, 0.12103891340815635, -0.31565396885112434, 0.1606193151067699, 0.6081874237246043, 0.2306173294190671, 0.11620986799848203, 0.866737286689911, -0.6314467544321722, 1.0819407868965447, -0.21545345159100296, 0.33168400790827, -0.23169469402368514, -0.5969613074289389, 0.5529066210777573, 0.052315441267315084, 0.43988193581148743, -0.4037802172964162, -0.6167628815181659, -0.42557792578062575, 0.5759536783350029, -0.8730285309721916, 0.8521242816533168, 0.6558680978857794, -0.14857842243234778, 0.5472489431243869, 0.02453079427309371, -0.7274183343847153, -0.7556232713552272, 0.09514197728807346, -0.8023268804481377, -0.5343544359036039, -0.6796527183137385, 0.11422783109639055, 0.6990619288613409, 0.6699216438760397, -0.42353164991624376, 0.9962532035555075, 0.06559020434051689, -0.1274287928218982, -0.5238144610069992, 0.6272144213425408, -0.7726234760245805, 1.1799273379366118, 0.20531832043916362, 0.13957216028215458, 0.578370173452148, 0.09752127215753224, -0.40067035478792473, -0.03974449849520129, 0.49661804252078195, 0.9586370003602561, -0.9236652620445999, -0.5255570991155528, 0.8509184620842798, 0.8754250160628799, -0.33019037593382655, 0.6407283396929789, -0.8116750057454286, 0.9700583892534543, 0.1767299969625468, 0.9895011463065849, 0.18345747142023752, 0.6305413844469024, -0.1297863173095116, 0.27756131208572554, -0.02302860927500035, 0.4211669320923379, 0.6097439344689414, 0.27159408943317337, 0.8877323766021674, -0.2315524475657701, 0.14919099592663904, 0.4623173420338209, -0.5255641991466468, 0.009765494824538045, 0.7789070770190187, -0.029890626455999172, -0.6039503000967518, 0.7959228539481074, 1.002972102808603, -0.42617614404049764, -0.6805190234149164, -0.09575855102167598, -0.5631487362201422, -0.747352827030371, 0.23342665266228005, -0.8022444871899731, 0.16665430298695197, -0.5444575628032938, -0.292607333260364, 0.9220266277019378, 0.8984237088991412, -0.3844221071457991, -0.23164709411579174, 0.6886922558438607, 0.7616911134057824, -0.41561389566393414, -0.5401070880198704, -0.4978640640975734, 1.0049358322914965, 0.36405580365447665, -0.6302847670180819, -0.26223334644504087, 0.3047846986497265, 0.43946939933834617, 0.5351602890682946, 0.19574918900365104, 0.08793413710098036, 0.5686632442027085, 0.16785068141778428, 0.4493738568408739, -0.6538394091251682, -0.4696111615753687, -0.7982792642914172, 0.5104936392449937, -0.432908341701533, 0.3556882629321129, 1.1380830377484636, 0.5973281724926277, 0.34764969095975157, 1.0831932363238708, 1.057562045274561, -0.5581777781516581, 0.6907792158286613, 0.30854966709101206, -0.11333961504238504, 0.17295302846320026, 1.0168378218493355, -0.4086453597084733, -0.8497915471559071, -0.272210410644644, 0.8113600998618509, -0.8714386827669972, 0.6137477858802409, 0.9122004085010085, 0.9569981754444117, 0.9208250291942324, -0.5894315566139626, 0.8420446061156347, -0.7640696686491945, 0.8263118469831332, -1.0148654938284953, -0.5336570922025752, 0.7276671642386451, 0.5887793937279893, 0.4617284949503427, -0.48440963120339947, 0.030871197088206376, -0.6091716843793641, -0.2990997348851872, -0.14321123185747867, 0.48879276875780553, -0.5906998625971592, -0.41807293832410686, -0.05715806943497064, 0.921929046234876, 0.6995110667928098, -0.6435255509566995, 0.8226741132429178, -0.24045009372950588, -0.5567996769616982, 0.2885578294565216, -0.07839934166249332, 0.09723679788937731, -0.5678091210418855, 0.8022003191419985, -0.6136160551401256, -0.5771347653599115, 0.18500864448255774, 0.39962105416580773, 0.8677211677293769, -0.9309561650210718, 0.27727489216702644, -0.8090658607429191, -0.7362931866372664, 0.06510082250170811, -0.807587380242264, -0.22562975651343886, -0.18039718999239654, -0.9091311503793911, -0.2150317132796789, -0.10344459447189938, 0.18626662644270586, -0.3211135791238877, 0.700539498353445, 0.8746968262392963, -0.9852365616648695, 0.013477246378404206, -0.3882057434836283, -0.49535164954644273, -0.3807433759065333, 0.09872687239877266, -0.2025523318883388, -0.07827763643368217, -0.0874397413034567, 0.24080846387676758, -0.12859699071666417, 0.1658138396647251, -0.40286199476619616, 0.7012184388184114, -0.5720896152343466, 0.33848493434612836, -0.056232604457593115, -0.9377921166671546, -0.8755265015342064, 0.9156362630905703, -0.8388103481790459, -0.9340480157647488, 0.09244602242551427, -0.018463991520297086, 0.6278504861647064, -0.17099161134152577, -0.5492174491734496, -0.5031287660396453, -0.8040121751141126, -0.22422864614164603, 0.9705139533455832, -0.3000339472598073, 0.7271142514533697, 0.634040366299853, 0.671572823207219, -0.8449370730685705, -0.2694712381790556, -0.13849089374244403, -0.3114551429515042, -0.5423871182349176, -0.6528255486420255, -0.912781549909856, -0.5950675840993095, 0.794275767642281, -0.4336724637533511, 0.42702587450456486, 0.15367637881257468, 0.4481616364532658, -0.785440109322241, -0.9906620588823014, 0.979906361369556, -0.21675246175690502, 1.0779290656169183, 0.46635363325969026, -0.4086969413499507, -0.46978358774609197, -0.8421263603359219, -0.8026873392369173, 0.8507127631964841, 0.28759111840673135, -0.32445512495692613, 0.04683018976768463, -0.950774819428818, -0.8042895047696373, 0.7755524512463497, 0.2610065645508146, -0.6800202126989493, -0.9895626063027261, 0.7323554099252173, 0.3798306986674151, 0.11839393759291612, -0.9319376940331955, 0.4406743459662832, -0.5094658824214363, 0.40464392097362994, -0.28247771994771403, -0.10971679004238986, -0.3307059740435254, -0.08431580691866085, -0.7041631627484356, -0.07975689324814954, -0.6571211065833332, -0.8749597059099283, -0.13843309392115088, -0.4164848618675254, -0.5172584002502968, -0.08837797286312467, -0.667525939973793, -0.6509401543881166, 0.330880166337425, 0.8699168754719618, 0.6122328809696646, -0.06256017666626361, -0.3542054958578833, -0.9051601014016449, 0.24187665419358187, -0.2227771931602506, 0.03263751884483857, -0.9624280084078175, -0.5327346263724735, -0.3198728885868634, 0.4672923744647863, 0.8246947711541001, 0.2056925623907625, 0.49345751467129295, 0.8372338885961167, 0.07216854378221498, 0.5693322194090692, 0.1902204925575511, 0.3973520058460258, 0.19829081138298893, -0.6374216142085767, 0.26684287703659565, 0.8813050690613504, 0.3055298217771561, 0.7787978298524992, 0.9662039298384312, 0.31565198071434564, -0.9646987514889341],
      [-0.3844502537686888, 0.09459619614108443, 0.6813065082784047, 0.7373792737713136, 0.6403667130150734, -0.23310572837613422, -0.3401278184688509, -0.9155064155629107, 0.1791612876960009, 0.8408008076937383, 0.6399043102245572, 0.13051822019657042, 0.8627059580092726, 0.6056394627668023, 0.8264626076279847, 0.2136338267667683, 0.9631633647609787, 0.860596525942352, -0.021980755271037603, -0.03765971113797028, -0.33848030325433853, -0.4108957867055957, 0.058313391508709185, -0.05163870274153292, -0.25703130257449114, 0.9597881003811042, -0.17639462647754026, 0.6640332978576202, 0.40252744869963497, 0.4620762476668968, 0.8481613190785751, -0.06628349252256989, 0.08407394830012996, 0.08653133221924393, 0.9586824555230777, -0.1866494840932037, -0.8316226113136843, -0.8413022275383022, 0.15342985542306184, -0.06625894709463957, -0.6177810548880694, 0.6370445782281265, 0.4513032022009103, 0.9287355610082394, -0.04204310775390078, -0.6757338138741144, -0.15373948937320653, 0.7744209954588683, -0.5444090602644239, -0.9525709038600851, 0.7347243942109698, -0.01659552567959758, 0.10675029551280328, 0.865240835290058, 0.21054649341088513, -0.5227385821102335, 0.9395062235661342, 0.19561955921093552, 0.6241518744927097, 0.4304392941430548, 0.9501267269313662, -0.989784365872249, -0.773497230829441, -0.23206079040054167, -0.15798361315144716, -0.25874743875709516, 0.21020903478431394, -0.05776361412316201, -0.06833102382882555, 0.9177804336544263, -0.6362145347338282, 0.515590486146554, -0.7366964567299901, -0.13179424441832982, 0.7815752206799335, 0.43697287340866686, -0.3606469299967762, -0.2183820956286165, -0.4507494897333201, 0.6490880171998169, -0.8779388542956086, 0.25227761586774444, 0.5544319025652564, 0.9499127643799421, 0.3417757807533749, -0.6088797304816362, 0.7974436665591355, 0.11144756409665688, -0.23292003218372845, -0.3189121604808569, 0.8319289443436928, -0.8675713826052511, 0.30707767423774457, 0.6332980179221468, -0.10617799592593066, -0.38492445387896773, -0.038359643004199, -0.7906245839825357, -0.5188133910020141, 0.6564583104817925, 0.05955917548617858, -0.5227343993215701, 0.09883073996265426, -0.4388212852650087, -0.10899489085149641, -0.07293801665527654, -0.2974355136670907, -0.03370949899228199, -0.04824869816026659, 0.9779889566006172, 0.7443058214367324, -0.29213541981347946, -0.4844860498628961, 0.9575202928944739, 0.8009346516039028, 0.36126622500239824, -0.692890235121622, 0.054656580052592364, 0.8927056532496259, 0.2802809595806237, -0.9157017473810238, 0.2955797114205012, -0.5616376606825595, -0.018942987973064755, -0.441739002244889, -0.19772720988418022, 0.7775743759635051, 0.5539469042790525, 0.12289337930455417, -0.9635884390119601, -0.8433971463503295, -0.702214207573533, 0.7594293066718528, 0.4054308815868949, 0.1372309253836832, 0.09192010493372263, -0.787147034706806, 0.10575744703737626, -0.4429064091813166, -0.31339651930880436, 0.38551762616265195, 0.3970309103993931, 0.32505379853234656, 0.8064490637155506, 0.5460992682021768, 0.4349114924040522, -0.22705932043402932, 0.8897360931818825, -0.1701636902320095, 0.09402631575803644, -0.8240294304815587, -0.3427655579343229, 0.3746105371372885, 0.612901663939656, -1.0097495685925773, 0.06720034038303613, 0.20301732091338628, -0.727523228249771, -0.2011646225561667, -1.0340647059639585, -0.3225832523095634, 0.819640476238259, -0.4619169593561376, -0.2542343402586093, -0.08995096431416649, -0.7292195538148492, 0.1218986146245015, 0.7026858466326082, -0.9005423022515979, 0.28086558939303713, -0.7508590606242823, -0.5401290010315067, 0.7799109607576162, -0.34189046634634496, 0.2713311364639646, 1.0969350928654433, 0.971183694415486, 1.0224987016844556, -0.653760148725638, 0.09824250765741371, -0.5634334049159645, -0.29809051199779363, -0.6305951431126285, -0.01835494660864532, 0.09565474056061134, 0.2168346900621871, -1.131293148603126, -0.6271871755029931, 0.48008158958506447, 0.3065132427228896, 0.8613620470590638, -0.9839567292066211, -0.5626784942786431, -0.9243757641914234, -0.12577444255863005, -0.6008757488435543, 0.14109580621271306, 0.7992874234267575, 0.6199972881236145, 0.6869741694247845, -0.9083456426306855, -0.5694495493485647, -0.38733980172785226, 0.15394248393594023, 0.38882845116184983, -0.0831533382370658, -0.27894787591249887, 0.4181071863159621, -0.8933026536991322, 0.42735713806716163, -0.6012786510603397, 0.07473643280122481, -0.8722358362944177, -0.10586145458107975, -0.21635458989277032, -0.9706567901797348, -0.6041126353606628, -0.19783431064905935, -0.6285618104024315, -0.8222262493334375, 0.5009629905928064, 0.6903434751351939, 0.4382899110839369, 0.5663187263564521, 0.6501198541795935, 0.13063397560525594, 0.4143022428583024, -0.3417453382206896, -0.6717907239127626, 0.6940663535969391, 0.5585298199571216, -0.5871743070002515, -0.4324418652584316, -1.119831842963623, 0.12605134399894022, 0.8782006130284336, -0.8602804877103212, 0.5145495925271616, 0.07895847446985316, -0.8105314112561448, -0.48917151857557, -0.4647493861161323, 0.14581348491693888, 0.3107290996544539, -0.6652581585056775, 0.7488917294945243, -0.7817158937842396, -0.7885764365543512, -0.7105922883440808, -0.37312353815422206, -0.4405023520843332, -0.594160406844935, 0.48606265092329015, -0.2779745815849907, -0.6743388501455285, 0.10128892973634644, -0.876920776688452, -0.6827591443704637, 0.05538898036620029, 0.1264654118333793, 0.004932613531369782, -0.9886493493586919, -0.8321445854518622, 0.6860747457103048, 0.46359094600765655, 0.2148466739412518, -0.5748393197329862, 0.18020335028524806, -1.2550897650543358, -0.7029823554967234, -0.7214655520398653, -0.9732005783723041, -0.6295719245482946, 0.4736649423597907, -0.41986468580807285, 0.9110136216303028, -0.14181508229992748, 0.5879483719767746, -0.20649117551140977, 0.20341873600641674, -0.7369413914410831, -0.8166130973870815, 0.9796977627167128, 0.25509092090407726, -0.5736085562511287, -0.21171874571094237, -0.7250498415104587, 0.2614321091422195, -0.27221815016672085, 0.06658171824806342, -0.20575821251379825, -0.8580469858583177, -0.7933020408823719, 0.13776126617509013, -0.4204419791397582, -0.028363350885178194, 0.16155984104117876, 0.3803529598135396, -0.48399161828071025, 0.5760611030894603, -0.8086554941846942, -0.40219160398408754, -0.7991771384684944, -0.19870780297354199, -0.8535783940320953, -0.42157610861405537, 0.37515718893297845, 0.45136963719446704, -0.6387642896140647, 0.19877105067397824, 0.7745925499678528, 1.0097592833791336, -0.29309097763984243, 0.5126277234667582, -0.6391209803512802, -0.3801431438144427, 0.09133307622899363, 0.4039476435049082, -0.4302393599531434, -0.6365856050552091, 0.7838951436382184, 0.7226897496080346, -0.6222236393696028, -0.7000324401730593, 0.47257150119279207, -1.0009753202777527, 0.0713969212248846, 0.6544338328322287, 0.7287519160816734, 0.13370718078636992, -0.31518234881634305, 0.3507768761227476, -0.4997176118860468, -0.7812677285727916, 0.14869377154567642, -0.2599612649937069, -0.5379365837006205, -0.2087941300597237, 0.7697142500086994, -0.7436045453255673, 0.603242768516633, 0.9652248041802438, -0.1599362405012434, -0.363329869403237, 0.6497267698482393, 0.4743474773093172, -0.44004300207145364, -0.13603462129459154, -0.12201345712543558, 0.2675169007256495, -0.7197737501995254, -0.04172190752759886, 0.283542690106988, 0.05372414306662957, -0.5284600690112515, 0.3362231651301387, 0.5323112395919563, -0.914884794468185, -0.6704491718012604, 0.7048818044577716, -0.6110553218138055, -0.36927930743869986, 0.7993200326656598, 0.25892823066759796, 0.9104460826914273, 0.25498017094392844, 0.6900972756864696, 0.47360216719086445, -0.06521377603657472, 0.9368904500451983, -0.8692187826110657, 0.5725034325666736, -0.33062639891974754, -0.7333316312046536, -0.1520829046151763, -0.7282494824018964, -0.05961980549149192, -0.28446256845029616, -0.661238059169196, 0.8083574631118103, -0.41522625718823325, -0.48221789248061075, 0.0197180982241868, 0.5526962743926104, 0.649391557653956, 0.9177146646675879, 0.12503874926177252, 0.7017617498887395, -0.39901511464556877, -0.4660812326744379, -0.771741682419245, 0.6277429198546839, -0.2188977041248217, -0.27339911417499546, 0.38894361612198736, 0.5339673585927468, -0.9063459797153557, -0.5267538264191579, -1.0938353818350404, -0.23196349538146438, -0.36420354699578683, -0.7565259261425146, 0.44532144617028907, -0.7016106857996157, -1.0141450199830804, -0.1108595702729154, 0.010437768773437219, 0.905105176259378, 0.9239482367319123, 0.1042261801024096, -0.07512514351959008, 0.3270466914656344, 0.47647306348469753, -0.6310205985798412, 0.47012397158880737, 1.0278040491920744, 0.9618952309032067, 1.0270813432566654, -0.33672285285098696, -0.7139972288610275, -0.6328477322319749, -0.008974082322665854, -0.9957716074388283, -0.5877029489892742, 0.5211118097805355, 0.43580536525831903, -0.08244854825997291, -0.6184560514434102, 0.1779067279320322, -1.1143445043389595, 0.8466445904600267, 0.6113515505213571, -0.23244145474378955, 0.2643416929978654, 0.11658562458770468, -1.024109334481836, -0.020047791046546182, 0.7380118709112107, 0.19485758781952311, 0.9492968928895098, 0.6458921860042779, -0.5055150515315197, 0.39165235372917934, -0.5538133771433725, 0.7582547669999201, 0.3659517540781917, -0.053532355390083, -0.04061642726417409, 0.06594882258857376, 0.5650584161400517, 0.5492634832215938, 0.5462095100795641, 0.07032801880417208, -0.3654047552102683, 0.3623833789628087, -1.1775330690463113, -1.0709293764337897, -0.9848437422596831, 0.6400093152998074, 0.23176157801726052, -1.0695364430656376, 0.6993509826145827, -0.7909426988963939, 0.5975294636092939, -0.05494876594450297, 0.7830908222499495, 0.568483658036366, -0.9240862798106403, 0.37158070075984073, -0.10145664784988012, -0.48648455475864727, -0.5294879544997045, -0.0173093870735529, 0.7095458389373263, -0.3020099881392631, -0.7979504513020068, -0.801584599506739, 0.6461919712963584, 0.6416441571317708, 0.2457835197774814, -0.37137498880858794, -0.4319988073848135, 0.48210480692924174, -1.139872454616963, -0.7568234313069553, 0.214431012269232, -0.16968328262937857, 0.31274096677401264, -0.9803591461149989, 0.6696711065875414, -0.8262437997402858, 0.013174250995565243, -1.0731064112068056, -0.7234522812822961, -0.2452039815499668, 0.33397128691813516, 0.21876147528853002, 1.0093873220659626, -0.7124827110657446, -0.8705031690372317, -0.021432524234304362, -0.4687448671474969, 0.21324646414728318, 0.9586811844859807, -0.8199200046203436, -0.921232264952365, 0.18677309220610208, -0.46249575589119374, -0.9541015597750363, -0.6756175648056008, 0.1407568817381588, 0.6283248729008201, -0.5259315308103988, 0.18168712196719183, 0.13933025858078577, -0.6625564724283459, -0.03949006480213714, 0.15531062864820605, -0.08241736449431655, 0.08219430796220467, -0.8250125621720718, -0.5740182156462935, -0.8111265709249422, -0.5459756122679571, -0.3347730836344646, 0.13092210913304297, 0.8690819543234513, 0.4895783552000617, 0.5495805061043405, 0.3907217134274399, 0.1050545343195272, 0.2972187416344851, -0.6403937143950351, 0.15891298007075821, 0.11335485511728435, 0.005290246110721537, 0.2119292168952043, 0.2471427958175791, 0.5931291410494799, -0.9496715246057399, 0.8179985548317539, 0.0541050071889436, -0.5340415176592361, -0.6582681115139529, 0.9612756759092957, 0.4224478607346844, -0.6864979376364907, -0.2557436659520707, -0.2861725146807328, 0.3417954202822012, -0.19441087456827558, -0.9639448449446284, 0.1658384253877293, 0.5057929527161976, -0.8021372340851269, 0.7845415150197687, -0.9730918902984812, -0.1683018501142788, 0.8581672700555271, -0.2423578842895648, 0.6704634759322958, -0.38558287173508515, -0.787834190515337, -0.8004636770257157, -0.00282758290630095, -0.006408332650866211, -0.5152841041199615, -0.7419037140694781, -0.29904822162590267, -0.9797676649537611, 0.23649676294151695, -0.6109249653531856, 1.0210500244427927, -0.6834162286939656, -0.21273282838768431, -0.08709088654565267, -0.3021687413611328, -0.2416726100072006, -0.47715469777834435, 0.5512755527173724, -0.6696888764247405, -0.7225626256224998, 0.18037712285475038, 0.0873483091671326, -0.7852170871042472, 0.4849667864438048, 0.22388747964501512, 0.2413199297191352, 0.27748554628735156, 0.08581381876325929, 0.5272196782299521, 0.8130744362855441, 0.6603930072934433, -0.04405101025944151, -0.0039594470954131, -0.47677316397873243, 0.9410781355247076, 0.7811518523198794, -0.46113203393113766, 0.050789607232099916, -0.1003991144578297, -0.1829027889393211, 0.37338070564489934, 0.4001347419156149, -0.7226866513343498, 0.46838255313739213, 0.2714645207755379, -0.6759283989673898, -0.3285664263984159, -0.09528979259105491, -0.6753493056615476, -0.4839610457718155, -0.90310377971811, -0.1465482023386392, -0.2651402599321207, 0.551975837234244, -0.1808203731250407, 0.13067085101974552, -0.684917126822874, 0.7230392051009946, 0.46673354651199905, -0.11336140446115311, 0.5716794061833327, -0.41726142829325724, -0.9462104257486368, -0.10652995443261927, -0.580076052015574, 0.032955081296696255, -0.29004413883072894, 0.08868416190512071, -0.33768740674326525, 0.7649028313820663, -0.2089746711868261, -0.15258345165688197, 0.016126136605605617, 0.8120758160382308, 0.8931917204071098, 0.9954222970122674, -0.8010270061737219, 0.35155918145958104, -0.57195689732525, -0.5463719480074839, 0.12105879339151038, 0.7790903392119158, -0.9662079462814841, 0.4165137815251988, -0.14422720004223455, 0.4185816529796621, 0.2269701104071309, -0.42444558576408403, -0.27994088820825735, 0.41014965380367363, -0.4396971926130126, -0.641031526600193, 0.08381181231161526, 0.6644458943784665, -0.10853728648554739, 0.3629664408847111, -0.6639238953691916, -0.5709023029415744, 0.7965226746149038, 0.2932775390742885, -0.03654570330282603, 0.3883482229510827, 0.20531506201730007, 0.14769112302767792, 0.9801802071162465, -0.5123559001936203, 0.6023607011442721, -0.5116094698387634, -0.3253416133751829, 0.4736904018488054, 0.8446010019846597, -0.30826579500553886, -0.2261950371512727, -0.6209646805350896, -0.9958681380599244, -0.38299614337428456, -0.9481861499524421, -0.7996782922571491, -0.41241544167513144, -0.5371829856450057, 0.6160457723066857, 0.16749809290215173, 0.4535721093176734, 0.5000936989922623, -0.018244535702609577, 0.9080242295127551, 0.7925280381557158, 0.31234711690422967, -0.9422259391915111, 0.33936961253780784, 0.9780060934975211, -0.8593259921203297, -0.26949827851559627, -0.164760171540332, 0.6453885695858652, -0.3504881203387149, -0.08139394276351611, 0.4955366137077787, 0.04368930560919771, -0.8662139623248282, 0.7295594695251951, 0.9259081777918508, 0.817296410093027, 0.26242779418101636, 0.9086955836136645, 0.577836292384698, -0.10365636410747114, -0.4470372503924819, -0.17237349139523592, -0.31624066182946764, -0.4231231160152586, 0.3975728799889595, -0.30111139671617065, -0.200162971296456, 0.44387879404348385, 0.1666898260465726, 0.7290371841553365, -0.686654789306863, -0.3574032065183583, 0.7800114814051055, 0.7308845603595113, 0.7310555959910776, 0.0625208843131288, 0.26028732131732757, -0.5731531923928636, 0.6276334937319694, -0.07789156071450383, -0.6141995417321342, 0.03976343111317771, -0.33962711505340626, -0.3314497670012328, -0.5156190003118927, -0.2033072111877724, 0.8891099661488184, -0.6799661018976463, -0.9061246402272249, 0.5621278044744114, -0.7214857591477571, 0.2490733568222437, -0.054994887624873416, 0.32460839676199343, 0.4552746524971615, -0.7051352738612906, -0.8217745306206987, -0.169879651956671, -0.975410591367358, -1.0051479000057395, 0.4214145516781261, 0.9274046107264622, 0.8539578798024576, 0.04195439055152129, 0.7947707636282639, 0.14337360241927885, 0.9174933101652472, -0.576711437350262, 0.3147269610245714, 0.9856181908817521, -0.6370285193457645, -0.9797991872231545, 0.2956808206700233, -0.20357580578371048, 0.5434599210912664, 0.7656044931411476, 0.40936166629169596, 0.10302374519969376, 0.12500683186158898, 0.9574774391083654, -0.5247363773027869, 0.03957890330844285, -0.01654191291228074, 0.4719211016247433, 0.5397373094956823, -0.8688997232731196, 0.553697252128367, 0.19047852097616785, -0.145252399384995, -0.8288352784531499, 0.5286083494028454, -0.839386123660365, -0.5582758506186496, 0.8812924327121872, 0.5412447180886704],
      [0.7088394365328942, 0.15159343160000316, -0.6079689853019686, -0.5720620336952035, -0.2530064351284576, 0.32203313413191775, -0.6074598281001468, 0.9358404841859534, -0.6094650627190553, 0.0754305383549948, -0.7259939118697608, 0.5925773306951795, -0.0004586240689711999, 0.3379747725739811, 0.5842939679434617, 0.044155570683938467, 0.5616761432017515, -0.05832969535064014, 0.22728939759191924, 0.6206693669160152, 0.5863290236131297, 0.10869550145069173, -0.9804465533439007, 0.7748469036653037, 0.32132216509939976, 0.7406001697122359, 0.5882119499292425, 0.9824396116422781, 0.7821933645230604, -0.7890954619739584, -0.30978602988749976, 0.8655833599931785, 0.8434759737867492, -0.6467230423107334, -0.7026039026957959, -0.5055574003511782, 0.21640589053487502, -0.5495770047666613, 0.1832134181557237, -0.9568074228473609, 0.1105618852563039, -0.11110579736638779, -0.32492608548650687, 0.43855587646369465, 0.6548557000195856, -0.5084180847934084, -0.07896570771953143, 0.8206824359110799, -0.3220337824539864, 0.9615444691974341, -0.3428014271571782, -0.1927739577954458, -0.06874876242305952, 0.4591351530548348, 0.8612390617868612, -0.5913377127258878, -0.472267046900627, 0.23770325694152605, 0.0909645703375638, -0.050107982951147635, 0.8207969392392284, 0.9382113584832319, -0.16842505756075146, -0.24904458502355087, 0.3421981570965105, 0.6810276027192222, -0.5937128964352777, -0.37403674151406874, -0.6940991314315756, -0.18333508253800973, 0.38102282826194617, -1.0711578691095385, -0.41951838227735166, -0.6253918483536451, 0.9084237667737198, -0.4463138060589024, -0.7244444090105594, -0.3200502256371683, 0.6474596568217778, -0.5766773365998066, 0.6317070710854605, 0.7522090397812361, 0.2738395415046448, 0.5150838307487536, 0.6772856848963332, -0.35999168924179076, 0.36788928154025397, -0.2843063492775889, -0.49877516805671024, 0.29731147050518153, 0.07065333700039114, 0.539504785807993, 0.8617822839697707, -0.3088746959719049, 0.6844841625005761, -0.6770316355052428, -0.0747492081272784, -0.4345870732922192, -0.1990432436208081, -0.9278015873962558, 0.28560885834264893, 0.40089829949954164, -0.8622092723184639, -0.7990266151263776, -0.25731023429845334, 0.02350420869675059, -0.8939901772828399, -0.26144253152682473, 0.5852885618027732, -0.7795492361623242, -0.3316171947555669, -0.8644499338177508, -0.9373893202764388, -0.5951306136517033, 0.9198046607823905, -0.05086483897600247, 0.9887092932869007, 0.671789894557948, 0.744220877197833, -0.4096600150977406, 0.5780275311808818, -0.07065668028667146, 0.10875203412695135, -0.7704648631268174, -0.46041282193260485, -0.8405578951636988, -0.41313640447423056, 0.7842536113318005, -0.1417364205501419, 0.5820046870940998, 0.8303872820762974, -0.3200788775424443, 0.8136763726456231, -0.03478771674986205, 0.13474438227761526, 0.7762677715002703, 0.7101389729814201, -0.6378054385324078, -0.17582829662523222, 0.14364364760845144, 0.32800666415934104, 0.8351066146799982, 0.9636162594858234, -0.0545299450902193, -0.35517942904108096, -0.45804464009458423, 0.5200741186192868, 0.38707251712316365, 0.2011067253542749, 0.03959724824203311, 0.05370231576328226, -0.447469650818813, -0.023387236036697612, 0.28294347643044515, -0.2252431427725055, -0.9870518617524445, -0.4562594127973711, -0.05088229436612225, 0.49255683319849525, -0.7729419301061901, -0.21207491781219348, 0.4718832602806619, -0.49166676841354956, 0.9114755026445341, 0.879753120551046, -0.9128709564416981, -1.00027134983202, -0.13265710425431873, -0.7621982022156238, -0.3129849161766, 0.3789240058013973, -0.7038747119749204, -0.04626989565799877, 0.6401876655562388, 0.13386418387313315, 0.28125747708153415, -0.23814851029994819, -0.20576751059211984, -0.30391911392006266, -0.2302827588230966, 0.019270741330435045, -1.2914838152242851, 0.3231330667113394, -0.4262038156100125, -0.10243708806736983, 0.9351745901792723, 0.041297562526770346, 0.3691877038210071, -0.5107591439526793, 0.6424095329299945, -0.8343121884430438, 0.01086692451550439, 0.7396393783725246, -0.1931006293473139, -0.32216223349279105, 0.3970024337103311, -0.41475206765955036, -0.6849939172118343, -0.2825989252595024, 0.696389623731195, 0.36020165882142785, 0.03341890820578426, 0.41301702248109845, -1.163165800988712, -0.7442181265706828, 0.16657498102264348, -1.2229431403052087, -0.38802277988574074, 0.20041994651267675, 0.4345269045704787, -0.2513376192420877, -1.0424954218552398, 0.16042039452442966, -0.6654686024367347, 0.9170662361168469, -0.5445692773796499, 0.4217949104772927, 0.20977519582565415, -0.21965833550257682, 0.6779669869948914, -0.3832460805759288, 0.3070585786089472, 0.8608625595586024, 0.09204025356923023, -0.5231768935196911, 0.253584172812468, -0.9172609767463681, -0.2266630515021396, -0.7153239047100294, -0.5970744174811841, -0.7228262932197373, -1.2784143141035538, -0.40519768141165374, -0.14595850138540276, -0.47393097589037725, -0.6577314789011001, 0.10174848163574812, -0.8537578411110082, 0.05999000142006288, -0.08477774629964033, -0.22985127214063522, -0.751281784818692, -0.6531473817179678, 0.31248500001594587, 0.2773048185140124, 0.02855635795860328, 0.0925848562185583, 0.7243079146411215, -0.9088099861575968, 0.6454013369032341, 0.09654894828014422, -0.37193858369560795, 0.3243437624322657, -0.17496211516522284, -0.010256699277332876, 0.7210598406380123, 0.4831988410036819, -0.7002810071012704, 0.49155487021291594, -1.4178242899591311, -0.7673692159116451, -0.3615955305768961, 0.3259680173452537, -0.9862103043575938, -0.5855919971307276, 0.342259526817256, -0.004929934719818645, -0.4415277902042534, 0.2214606821222144, -0.4591384788739781, 0.7486466540916016, 0.25436746108543273, -0.03803317604124707, -0.6176658312904316, -0.896338481209632, -0.29250010615199146, 0.7394173153763222, -0.5164839283140732, 0.6625517333845921, -0.09439071428287017, 0.22771524941993496, -0.05946672314541479, 0.3592706451826465, 0.7177451972526947, 0.07230698824604344, 0.1563732303032889, 0.18450462104862897, 0.18389234603719695, 0.08384503975786287, -0.07863916688849563, 0.04373499821269359, -1.1068892655909646, -0.44144328742652117, -0.6737032613144364, -1.233857629664048, -0.4034201900640075, 0.003201506392583272, -0.27172490101498864, 0.24831325846612837, 0.5965725800710824, 0.3039619459179791, 0.2951020286335666, -0.4014633263986797, 0.555105436101707, 0.5595374762806721, -0.6139187773534426, 0.8911615540284393, -0.360547602510807, 0.9012159447450167, 0.7775559401883914, 0.006121896285759682, -1.0558155670139737, 0.13580920833004145, -0.33659226968329475, -0.2148878747187768, 0.3273413458479955, 0.07099925250684135, 0.6412274855525562, -0.19666981314190876, 0.19964576559138555, -0.5280486921540802, -0.5180809645242427, -1.1267170286966386, 0.30412125202337315, -0.768400958373319, -0.0775823641999856, 0.04938818414058472, 0.42866279728842827, -0.0006068949344815736, -0.8333226638927019, 0.15385202892743804, -0.6650833911478612, -0.9662003723763362, 0.4261539555184946, 0.19113411706007044, -0.31169893035155927, -0.31722129343484023, 0.08426496283035152, -0.9311599941754892, -0.4295719537807649, 0.16428888535334604, 0.41377168139325116, 0.2182758175173663, 0.06645172996754443, 0.388461089685743, 1.1109534085767367, -0.17079042728503713, 0.07008750193429338, 0.07108617651108662, 0.2814289840922851, -0.15072399415884818, -0.4273518251521413, 1.176370008931224, -0.371785547293204, 0.7384770354042126, 0.3394131162365543, 0.0848216724678174, 0.16798323278941754, -0.4260098025896441, -0.021972293730397996, -0.25802263548073745, 0.8782117283600251, -1.003805143189434, -0.7559627163350402, -0.7132831713935636, 0.5689721242778278, 0.37633003856660846, -0.4657585609264359, -0.462063703744116, -0.35108956493797416, -0.6302532465075333, 0.7844115008903794, 0.5320108907996987, 0.081249539200037, 1.142023249533787, 1.0730675855599638, 0.1705141261430964, -0.7277328093983885, -0.7492156602337352, 1.0766208506239416, 0.5593920926581605, 0.7067853639058187, 0.7576724392160041, -0.581402839611109, 0.22184179771831938, 0.3665660460498246, -1.208132466158008, 0.43887864607374677, 0.45594996606288424, -0.7553039860576956, -0.5192057736399681, -0.4799545827381902, 0.28567517884913185, 0.942943586424989, 0.10661407373681589, 0.4457626042767047, 0.9148463708952534, 0.9700767016353202, -0.5767789730026808, 1.1087908472649861, 0.6864921617037147, 0.6417879681190888, 0.7621669069623792, -0.5197364613360314, 0.5039726794469163, 0.4161179926109187, -0.0057313668754645705, -0.40517724644162584, 0.3823746067559851, 0.30494624058025366, 0.30220121503605535, 0.8443045748266849, -0.6714301750562682, 0.623363141692913, -1.1803327736190439, -0.40210152235366703, 0.6271952324518553, -0.5777617752436035, 0.9626137336873646, 0.06710518226014761, 0.5564209123936324, -0.40934491028810244, -0.6612924234045208, 0.7946865801934336, 0.6348295161033917, 0.9258555730207598, 0.7153173651248287, 0.8427553025230666, -0.33815980014044034, 0.8514416747324791, 0.06925890231699933, 0.6526520954538416, 0.16076901980694197, -0.36415846415172914, 0.8987738553558602, 0.4445060555893161, 0.8865281885810167, 1.5339411005049657, 0.7125378985842528, -0.007654071379531532, 0.15791227057707288, 0.5871286177026995, 0.11862041676874474, -0.9657045727347527, -0.291157373945993, -0.06068177968325028, -0.5419554986993637, -0.3400540242314271, 0.6226793036469257, 0.9431410657034354, 0.4767787828007956, -0.1415089057801009, 0.5926308915399348, -0.8958595832833192, -0.37901319069016887, 0.27097000293061557, 1.3592732150541074, -0.07910171904692143, -0.22867469399366738, 0.8875505177259012, 0.20047305919155523, -0.019720458459500604, -0.030605568295763202, -0.4291164545411921, 0.6730350814467004, 0.1885313549333594, -0.0372101608521492, 0.58232464926614, -0.9137717504755534, -1.3231615940283288, -0.5626535221799913, 0.6078756896897587, -0.7313723563519742, -0.26854912220268173, 0.32159346158053875, 0.5813433443905389, 0.6438461331412316, -0.3578057059045351, -0.009293126197478112, 0.27361816430446917, 0.46057653561069833, -0.15947178025749886, 0.10023993807371268, -0.36751339850465414, -0.22025348450436727, 0.2757533398357559, 0.1933996762105785, 0.9127320752249155, 1.153407991781068, -0.5428491870601172, -0.04905451160717342, 0.3652387154318614, 1.0795428637850129, -0.006062735122115591, -0.08176962116870468, -0.6423021640570266, 0.30141733666710957, -0.25847660637654707, 0.37613249307724683, -0.1332872459785722, -0.5152415300535427, -0.7053038031632256, -0.7924580001895828, -0.023512954518346132, 0.5636602770703053, 0.8763057713165513, -0.9794980822759719, -0.1768385576565556, 0.3519746426695611, -0.7807738639524394, -0.5258882823175128, -0.5061400444467684, 0.2135458668978059, 0.7098277515235542, -0.9902394765387681, -1.0852600876263463, -0.9271568026046789, 0.5073962316889096, 0.3609813039479855, -0.1620023746996937, 0.41494218960147106, -0.008807544640798363, -0.1753605468699703, -0.10967350410917535, -0.9533244696723823, -0.010412541380115308, -0.47830531972237467, -1.0509941439729866, 0.05734836095789655, -0.4935229397303422, -0.0011915680227736914, -0.942423835888823, -0.049526534671159875, -0.10866339852828363, 0.7533331187651281, -0.6692953928438627, 0.6221758827146142, 0.48001459049205064, 0.41017668321390494, -0.6896939946700688, -0.6224723629201959, -0.18073441608318477, -0.9474984542612831, -0.8494722456133825, -1.2999044411673109, 0.14279031990081273, -1.1877993914096914, -0.8721235566870867, 0.26743559414439955, -0.3362833650240959, 0.6321567855500455, -0.8345917567635278, 0.28475781115669574, 0.020122186705852457, -0.7906649224517843, -0.4955786455997859, 0.8537754042132518, 0.16201436298790917, 0.38888442136270535, -0.39617050633351986, -0.5629740718011159, 0.14400568690525548, -0.4497376887103922, 0.21584201475163045, -0.9941348902484851, -0.6653604632194161, -0.5918396218613502, -0.4966843529159886, -0.1452283550523247, -1.2162253782747026, -0.4156882212483281, -1.2436175383926014, 0.17167534271952437, -0.3011564345652332, 0.2843868123240743, -0.6506490958442139, 0.6260965438408107, -0.40550749580066664, -1.1012085621879106, -0.35900758905407043, -0.23920630125539177, -0.3831881456622374, 0.4587204354019949, 0.7013271034589579, -0.7233350598300238, -0.8581965982533745, 0.8065843234157999, 0.025373796026651588, -0.4430492767584656, -0.5975641501692456, -0.480708727231833, -0.7763398220987279, 0.7229765761356158, -0.013219123951174286, 0.6606084978865617, -0.33254142208465287, -1.0847533001871412, 0.3336806967552835, -1.2833483183630108, -0.7910615161355546, -0.13936705608651387, 0.03937082218398863, -0.4306400446353604, -0.4675706040524373, -1.18494372314631, 0.4772418063974587, 0.480598374898488, -0.4347559485573639, 0.5703247795754789, -1.0162576999116617, -0.0768980469462065, -0.14028625486927113, -0.34548776147846694, -0.6514659912762354, -0.5658331881709344, 0.3759717283584191, 0.9081233098423774, 0.9163785442926156, -0.7321152945174241, -0.6906162366250236, -0.8900984557328295, -0.1481282840444057, -1.0447619634315404, -0.8305958672400001, -0.9557012570075352, -0.8856906427883491, -0.46244159046864447, 0.8517222631201147, -0.28239688344419395, -0.00003230492793840516, 0.11954451438607762, -0.8487356586413104, 0.35346644203081906, -0.5057269575397897, -0.1812703785397801, -0.22339864259457545, -0.3374947006916205, -0.7568396213321923, 0.8265319966361278, 0.17198993205587187, -0.043067597122906025, 0.0478453964166735, 0.8261499632188813, -0.13465961845694352, 0.6732930163783529, -0.051543374309763856, -0.19268223462667497, 0.8847432452237154, 0.13570406770255378, -0.70600709664643, -0.5461680375457836, -1.0355568241248856, -0.3183746487838296, -0.9600131163442618, 0.40842272463640755, -0.2021741151985383, 0.19165434959600947, -0.19132415918638868, 0.005128608497017474, -0.09850817993231292, -0.7956574383350202, -0.9250333266927898, 0.2758251753228648, 0.45985283145007677, 0.5715929459183101, 0.8469756465480882, 0.6227120068268448, 0.7729660344302408, -0.6226801255478535, 0.5255874658769489, 0.1926149183644802, -0.8602515154436644, 0.32627260763285076, -0.40741636215846483, 0.3924358311990627, 0.7813390159595306, -0.948378905464973, 0.4417409257111022, 0.1437094827231015, -0.6172573246399775, -0.8335737048457896, 0.7993024927490757, 0.6155251908228064, 0.605122989077345, -0.23166210967101797, -0.40571672502151845, -0.1992855993444232, 0.3764068421210797, 0.15510082879360507, 0.5375959308673618, 0.7064604572115557, -0.701305134196851, 0.8420109819457361, 0.7702335723313506, -0.5756777637229027, 0.5238936247675636, 0.3305635063303359, 0.3935622627288074, -0.8346204221552279, 0.42213578347286446, 0.06286072974788037, -0.10569216689668293, -0.0252886244283915, 0.2868298074238613, -0.17290134779527352, -0.3449837317657549, 0.7325991133731424, -0.8767222777018404, -0.031248928251439892, 0.5769306644993442, -0.15503296884767834, -0.09073031585439924, -0.9989902459420369, -0.28612120935799873, -0.46838661994792263, -1.241172055313903, 0.30974002130174827, -0.2893381221541686, 0.5184833422418685, -0.8284153089171125, 0.42749449821311697, -0.24385078201018887, -0.8140788963497639, 0.8662576410917829, -0.565123614979034, -0.10861469282866082, 0.6445217301672203, -0.3707932403977388, 0.22804194681313406, -0.3962985593937732, 0.004241007225191306, -0.4940946825366362, 0.06397821943490538, -0.9696423103010018, 0.06366409313497877, -0.07970055659784198, -0.44859738726569026, 0.4078826253681172, -0.31207191124441497, 0.4023557447374386, 0.62093571572396, -0.09759347594804085, 0.7096692842968647, 0.7629551830171362, 0.8723722662276482, -0.6027333806682429, 0.22194431934277742, 0.10469487538235538, 0.8195148196493037, -0.05209636690339553, -0.9318108455493381, 0.053255251857210306, 0.528593923482068, -0.732235643073412, 0.6059464458677327, -0.2917546718513276, 0.1921749475853196, -0.23545640400044032, -0.9847994906667509, -0.08792170629448737, -0.38213312924780096, -0.9450934680791329, 0.31830811678822946, 0.3165058428897813, 0.7095075332120436, 0.17545035428377853, 0.9503486267003021, 0.8703940597026041, 0.01555155817842632, -0.52575077983496, -0.8009599444528557, -0.2300213739166817, 0.4230763422277131, -0.15100965729421717, 0.2431218445315605, -0.060772861406606746, -0.20373871039265296, 0.5513807753734787, 0.6998867179822886, 0.14750995732716704, -0.6328915437263375, 0.20486519067556586, -0.337763962365397, -0.632652120040765],
      [0.8803144001649895, -0.2441361289561049, 0.6489908485457444, -0.8095412108671604, -0.11731485144005067, 0.9656151245164352, -0.49059511448324705, -0.30826910428259474, -0.0884112917925844, -0.7472988446127357, -0.8165362938491242, 0.7697875663200685, 0.5755101817285964, -0.1894770976512781, 0.8524595205394255, 0.735125035046916, -0.0473277849884976, -0.2973912017386913, 0.374649484384824, 0.01115137350223245, 0.10483715531758857, -0.28727240104002344, -0.7373146766150095, -0.16258424930359391, 0.6258107818188919, -0.5341901102961665, 0.6630403513067066, -0.10764197810557781, 0.5487008563237926, 0.1265568299985186, -0.14944507353884515, 0.2600379254266478, 0.12391114741377869, -0.4968933532987705, -0.5344277293143208, 0.2440047165398785, -0.3124320198098472, -0.7626194938831657, 0.8957976797229783, 0.8844807358428342, -0.7258058163106177, 0.8513076634869519, -0.2229610477793565, -0.028609712737011562, -0.49070091337725785, 0.8302631531981677, -0.6704345131113392, -0.5842975774178629, -0.4917470379284094, -0.7221401969786476, -0.9865217933848112, -0.0008338897487523255, -0.7155060628544848, -0.2346766009487736, 0.4671677585564306, 0.7744726157577045, -0.6337072513873568, -0.4266820803389864, -0.9393393105103421, 0.35740949095701097, -0.03149171350327668, -0.4096221396608837, -0.7329870292559304, -0.35259659182876835, 1.0125642483271222, -0.24861384960070132, 0.35804890074496576, 0.4089282555139413, 0.03441884769067572, 0.5477852632008655, -0.9104307090946042, -0.9991219743296978, 0.856389473940669, 0.4717724981399072, 0.39693713091442145, 0.36360730351535436, -0.08550584633345944, -0.2295384162368788, -0.9543822917598133, 0.43111833194233107, 0.2208672821237558, 0.9856279000986825, 0.4388699811963192, -0.4966238011439191, -0.8970402819839701, -0.09374100967775874, 0.21845442161719023, -0.4262823633757318, -0.26170977074246443, 0.6279014545488415, -0.47619992950473855, 0.4870586253559415, -0.10949510157714562, 0.8058036473767232, -0.1869032951598847, 0.694509085464066, -0.6893160568264557, 0.5685894294799889, 0.17757089058907033, 0.22860697897756965, 0.5501071883562944, -0.14986038080259304, 0.3132558248363668, 0.2098909373070574, 0.3790845145738212, -0.4488670147381742, -0.25443590677905625, -0.5561323930441168, -0.3256370218296108, 0.2826388723694753, 0.40871619356539024, 0.27973471196725014, -0.5126010432214253, 0.49156612407244415, 0.35299195970806463, -0.6688771557427942, 0.823289571921979, -0.8722664559323111, 0.2284495390863725, 0.45765069620003873, 0.6588223007887667, -0.3101875938662885, -0.4176452463200115, 0.35235976488158705, -0.10699058913591798, -0.310268324779628, -0.5787183007430963, -0.9998350362438878, 0.5052722205156491, -0.2607399882577533, 0.3502761283106652, -0.5375007441762563, -0.08565902611654104, 0.04931310140180043, 0.8718083171030857, -0.5750411290910058, -0.7546530645478371, 0.3300988418692165, -0.5793454729381303, 0.5642539524961232, 0.8040793233089264, 0.97506271268348, 0.09349625734139026, 0.46551824044527834, 0.23244271184843368, 0.11676674820886385, -0.5803143589856893, 1.0907505570079377, 1.2217525001262755, 0.2605471406313914, -0.3017516701324205, 0.6253204816650184, -0.01877829333508877, -0.5120260227106683, -1.336481492316094, 0.3354088347902863, -1.2204899494486077, -0.3754868840835595, -0.1637603497794642, -0.8589127362690457, -0.2779174742472729, -0.5072168914662786, 0.03406421523887383, 0.2593939920606584, -0.019113758034905812, 0.4903883805530694, 0.6227128021075217, 0.7359736883287358, 0.31096132951151384, 0.4533923598091739, 0.6959627555208369, 0.31058385771585284, -0.1443375142548488, -0.622349542861942, 1.1886791011445448, 1.1643383515438968, 1.002366583340029, 0.5662917057113587, 0.04296102181208693, -0.7133085068352414, -0.6788054207135633, -0.03079007767372798, -0.6612950621846504, -0.8947338135986327, -0.9015307461472785, -0.09912874460284876, 0.015488265404764789, 0.6302016142552074, 0.08980974467561506, 0.5617832697161601, 0.34847739342225453, 0.1092144528679867, 0.23862973692190312, -0.022081446206715316, 0.525462924127133, -0.01844816378575199, -0.5717478220328822, -0.20226545038963414, 0.16634035434615335, -0.5981126335849402, -0.08043112245829163, 0.6593333288957274, 0.8680555283828455, 0.9194463780291398, 0.6527763255838647, 0.4781804506197798, -0.09442817988064413, 0.6260208229902882, -0.1997843300590862, -0.05576148549346404, 0.583920749593593, -0.6864291160502561, 0.6749950369429701, -0.32864813852597774, -0.5238199313008571, -0.31563655455068323, -0.5519400083722908, 0.8314392092726606, 0.3404914550470625, -0.3412677327393345, 0.70898675532156, -0.5438769697571838, -0.3449870732752057, -0.719678744348934, -0.47982572426905196, -0.9679518803510434, -0.5621734860665936, -0.4913973526495169, 0.23062722600522803, 0.5441863582175464, -0.42168754048948975, 1.0810618089260995, 0.21137438948006007, 0.8825062226320897, 0.19943423324677054, -0.15083925013899666, -0.40046374675891516, 0.3985464648146329, -0.5956109947142659, 0.442962893756746, -0.00892367081132867, 1.0367919975651747, 1.1570282883031537, 0.6932711469808263, 1.0443503734773296, 0.03240319274340218, -0.49636310360630653, 0.06055825317926262, 0.1763585796136052, 0.02449738755945549, 0.4781584224149982, 0.03840761497028011, -0.8931001864528342, 0.017876074148784008, -0.7216430046838687, 0.7749439080803735, -0.16793976095315577, 0.949734598387934, -0.6465864672559899, 0.0051149042601608494, -0.23432417365254285, -0.2838702906967168, 0.8768691399659634, 0.15998648329384527, 0.03373518392097378, 0.5099870044081218, -0.7358524081458188, -0.3205969079778618, 0.8038074741147352, 0.5246271860510137, -0.14823221565022054, -0.1285229046188312, 0.4395264675921221, -0.5879268821694367, -0.7229975153784324, -0.27003398658085, -0.18700670309022124, 0.5811228593602559, -0.09160799722039406, 0.4225319687158719, -0.9241506157569522, 0.8329903229608927, -0.41083430129586423, -0.7823431365048416, -0.5140770656455881, -0.680623645521505, 0.559266662706456, -1.0209033436405477, 0.7447104857671764, -0.12574869686611218, -0.9453726505970034, -0.9692669801331035, -1.3946543640642204, 0.008838768405903244, -0.705860694003132, -0.33666924433657164, 1.535219900903941, 0.9403503142919831, 1.3492738787992715, -0.31528990854881606, 0.6454241085935892, -0.019582362065542317, 0.3061794855612064, -1.0724804758398878, 0.6306170364586494, 0.19405187329963344, 0.8639127062931476, 0.35901079033868144, 0.13984561126369277, 0.6586382838580964, 0.14675605179434062, 0.0003886238031177948, 0.9769728616797653, -0.7708169675840427, -0.9113096320346646, -0.12386739883945436, -0.1250741882845826, -0.6925306348503166, -0.08646433750459012, -1.5287933025253055, -0.5855481978666494, -0.3140646930042027, -0.33652736727478555, -0.2238958166311093, 1.4607626621434153, 0.8690348693972869, 0.11211388214316743, -0.23093588807924517, 0.565780894513439, 0.7265597794325882, -0.6770395384087778, 0.4752849165316714, -0.8912309324225858, -0.01837793808330013, 0.6942880640633374, 0.3408087611304138, -0.2933280329806358, 0.9863177196621965, -0.6685183691112246, -0.23886782103264725, -0.4499558765692133, 0.14854232972412024, 0.01825422423166185, -0.8486293576315683, -1.0580794624501593, -0.6659881548047885, -0.02030080875898284, -0.9692708970342011, -0.9543611437837304, 0.010342595565011346, -0.06987511243275402, -0.5392272943601613, 0.1225748744651474, -0.2724788242221604, 0.7126129464632324, -0.00750195965041547, 0.4207498960018059, 0.2481702709492459, 0.6994038920759605, -0.5254871382997249, -0.6661317600737313, 0.7707613481915667, -0.9691613255167518, 0.36225001861481676, -0.024799320829215692, -0.4251137990620367, -0.22835352456161923, 0.8634847082891671, -0.5417384669410982, 0.41951395903252614, -0.648542604169516, -0.11716544665490058, -0.9894533496299253, -0.9737992628219437, -0.6260776201209362, -1.8892862791619434, -1.6115051034138368, 0.22972237143736113, 0.578100043940857, -0.10773748964802621, 0.9045327812325529, 0.3550692472563467, 0.5036851874067395, 0.046274292636485956, 0.6373808274607118, 0.14457406660590427, 0.9131181250434349, 0.1978435475746559, -0.23713614313451986, -0.1924977039435131, 0.285531574538285, -0.5302989008383229, -0.36420119085677505, 0.2082418469456229, -0.2455817057138141, -0.09767016560473517, -0.04629956598341036, 0.09983311970828536, -1.3421340008645106, -1.2110872356220146, 0.4309749867734929, -0.3812854859500462, -1.5564516219434021, -0.00125260037806514, 0.23942533111580638, -1.454579927363097, 0.24195325325681405, -0.2758845543148837, 0.29003647137209587, 0.05239119025547561, 0.5986397757400619, 0.853335345444642, 0.2893056786056328, -0.5916878933138104, -0.6025134115799116, 0.3852180904915256, 0.32902234977591127, 0.7285706729344812, 0.29850868446069506, -0.7573101744650814, 0.15056548120955113, -0.7474804418346074, 0.615930640255877, -0.6149366582350888, -0.22967124625737842, -0.6730857777197063, 0.18367213703037816, 0.42675378142542025, -0.9161980167552727, -1.135481747051333, -0.34361116135973757, 0.3676610988929324, -1.0131155622973018, 0.07907519529350626, -0.07841091687453061, 0.08007686405531746, 0.8743267105179064, -0.31697724245839404, -0.5280659845720741, 0.6023767939563338, 0.7707859219841314, 1.3106056809326183, 1.3099679094276255, -0.5998909423090693, -0.4009052410307664, -0.06388918754385325, -0.3345814661402808, 0.7130805414766422, -0.8384690742176866, -0.43397454885910003, -0.17535337008868115, 0.34343989699296557, 0.5067365930120765, -1.0048913929195142, 0.29026257317899895, 0.11598253795865775, 0.6795434228461151, -1.2564266544016454, -0.9214213659565876, -0.22701174230874085, -0.96953263672823, -0.3938885015934418, 0.9067954252343533, -0.779061928187964, -0.6521620012780256, 0.0071185852952237155, -0.7788564534436385, 0.5804892150869171, -0.5604777373280382, 0.25390480393255754, 0.7783648724325504, -0.6936753025136131, 0.21290496156664573, -0.4865932278847755, -0.20037043387609138, 0.4795933664804679, -0.5084126153036971, 0.8500732056767194, -0.40518534685127455, 0.748286347407467, 0.6823212108747371, 0.3766447255827804, -0.245413618531393, 0.18358147632151506, -0.8894037359116332, 0.08130551136343397, -0.41308240459873596, 0.32554367773423204, 0.07533923593786539, 0.11186982696829477, -0.7947012837305361, 0.6496100746588874, -0.3243909835997533, 0.5659571377619735, -0.41103742618222305, 1.2138247765793846, 1.1492231456299176, 1.0012226051634212, -0.36795983934263143, -0.4444193324283763, -0.5954791448181594, 0.3953997461313792, 0.024852899327307613, 0.5906615699707856, -0.23574383565542367, 0.0328694763690415, -0.546394745228333, -0.49891846306490145, -0.5214495243901576, 0.2116633958937503, -0.02014628739111298, -1.0925730627775694, -0.39950978888493777, 0.3162953656791951, 0.25973039083117905, -0.7089128521657642, 0.19925138476707016, -0.5501514354978255, -0.4904755825434971, -0.6258427840712022, -0.4288483488233105, -0.4042196912455057, 0.7771802523985463, -0.8463854376443771, -0.10297302294004235, 0.0008838020893891714, -0.16271745624232742, -0.12347970419800668, 0.0363587117715722, -0.6235332422042398, 0.9322353929791249, -0.8437506667395199, -0.8604789121386315, 0.6513614641406125, -0.6855788918191735, -0.6480988581918714, -0.5198720019219959, 0.29785878765207735, -0.4160547276495346, -0.79883846586092, -0.7747550273523958, -0.8499223537998775, -1.2693246316968976, -0.657038865278892, -0.49576625678156583, -0.31696531739429296, 0.24777400968212027, -0.23773493689736602, -1.1261287563818707, 0.5713915716546449, -0.6277564074480745, -0.5276142674785018, -0.05417827491241106, 0.5531386223412809, -1.1179929157470467, -0.003254763003816715, -0.3882478313959358, 0.7066699911272516, 0.18048823416646717, 0.6955782062393501, -0.7024234682802776, 0.040988539417779066, -0.02869111105932138, 0.7753540225834565, 0.4493298727034834, 0.03218561286423848, -0.38722129216292883, -0.29053486690410824, 0.40937020916963535, -0.053226501981635414, -0.22185182857152153, -0.27676129136161126, -0.031513408357032695, 0.27437236481713684, -1.089607519287126, -0.41799165798679494, -0.39649194474858934, -0.07409339594741522, -0.2594639326264727, -0.27233453706368266, 0.47603321643773294, -0.7923511140669891, 0.4954519211874451, -0.9346520315855937, -0.5594560183671368, -0.00430185248462457, -0.1805896123416022, -0.9044036251352148, 0.12273268136858799, 0.6507171799719025, 0.22254119572672104, -0.6044891556275244, 0.8818627533348652, 0.5388602630308292, 0.7915370814493042, 0.13099752339386256, 0.03681304698956944, 0.6436507737965481, -0.04298101426475073, 0.22808254291470648, -0.0215982373726716, -0.1838774156467459, -0.36894096816075084, 0.5593719676091041, 0.31434048875764575, -0.41024180123618686, 0.2711424456379642, 0.5666143709353791, -0.7955522500257903, 0.2477895135157784, -0.37392255494458704, 0.5574083753288575, 0.8633431434211185, -0.02904669042000708, -1.013986672545258, -0.7646384841958309, 0.9034662919827001, 0.4971838876100579, 0.5477739939343852, 0.600079830835462, 0.29398225467231887, 0.23211205351449798, -0.5570231183655606, -0.528023621804424, -0.6087518834235346, -0.9393135070825879, -0.5839278518333847, 0.21602327348044595, -1.045885035776147, 0.9462137308157815, -0.05538563214844792, 0.6357312082459522, -0.7125458280729887, -0.4056742585526258, -0.5965409798585426, 0.020368991325782577, -0.9281894643241914, -1.0414837050097978, 0.2968979449553815, 0.3633686009059078, 0.6517614244188367, -0.6170713832270605, -0.8164576936742539, 0.36417160373233276, -0.2221978874509117, -0.7940105737433732, 0.28866503692051565, 0.8035020466060914, 0.5684271303096398, 0.6234906393054732, 1.1022423692266388, 1.114631318796064, 0.887084793159794, 0.6038059613815421, -0.5077762773681308, -0.5658351533964585, -0.17787030766047296, 0.07767380218493113, 0.69771253116849, 0.3785544326476039, -0.24125206874761126, -0.45902892787090943, -1.0401211651675952, -0.019802721250252803, 0.0535587445469006, -0.6757925325580264, -0.9042529449856934, -0.5007718058064509, -0.3960556866797038, -0.46076900365500334, -0.07037409870979004, 0.2787905205185088, -0.3812903058139792, -0.44281248172368165, 0.8790216741225696, -0.1781261564560172, 0.5906819851255132, -0.47174748407288525, -0.47773926561363395, 0.44854487564823514, 0.5093767010336364, 1.1028595713023706, 0.6888531160899669, -0.3723133969741165, 1.171490478557357, 0.9581164836402145, 0.4716204649761649, 0.477537117050747, 0.28466855541163527, -0.3601898639351232, 0.018416210565544395, 0.5596178124750315, -0.8811222709613311, 0.7679073785448589, -0.7212843998356094, 0.30328937870307354, 0.09832758765477995, 0.7676961075914287, -0.7326354360935411, 0.770440827982621, 0.6741553268548116, -0.15502496976596966, 0.5054593708701336, 0.5126116410082956, 0.11100154849896371, 0.49491247137904054, 0.5373924462562034, 1.1042678151693512, -0.09393709062006422, 0.2525234285951068, 1.0299655042516516, 0.24195784393153516, -0.521038689156926, -0.6267934352965042, 0.6768816771100359, -0.4236608063958318, 0.24321836372057634, 1.0471956675140248, -0.9436898625007888, -1.206796411303028, 0.4537856445382868, -0.14036903277746549, -0.5418746292465383, -0.14970309060513345, -0.718954289426232, 0.7385270006120699, 0.39058194520579503, 0.39603313630214226, -0.9781499859552142, -0.2856162543603314, -0.37073459892081934, 0.8383348100025279, 0.37469203803083256, 0.7682360297748962, -0.3119310054629163, 0.2677376708017769, -0.8209311097872845, -0.6721328343931761, 0.7294089365889582, -0.7702471730651798, -0.0607990637516616, 0.3619587188306638, 0.38288716250520705, -0.40822812896604466, 0.9293735808972926, -0.2565930455717068, 0.46398967101770994, 0.42956991142416917, -0.9142942311159601, -0.7682394522993058, 0.3093085806779913, -0.08200461425562468, 0.25364980694780676, 0.9825515068999627, -0.3488182324748013, -0.6910988727390693, -0.6697372043670663, -0.3930670312931753, -0.7234839913683183, 0.2913688010645287, -0.7579917588132953, -0.5354409735706029, -0.4425486676881, -0.629151088402824, -0.14286856352368352, 0.07208035683041297, 0.8485134182439056, -0.06259014440922997, 0.2113191137164434, -0.16927076730155208, 0.6022214628404684, -0.6059420569465663, 0.40326483538072544, -0.673710951800036, -0.9809960217827226, -0.32489486740088974, 0.8511737117784477, -0.5628290524973735, 0.3441876045877015, 0.09239626129045102, -0.1579704895319388, -0.35386851525039625, 0.1865153528105458, 0.19887133464485465],
      [0.0628546912840259, 0.44065389384245496, -0.5988765157658631, -0.6621603088650063, -0.8039338914336098, -0.5897285967210941, -0.21295158189524724, 0.9445699771987437, 0.9094398764952456, -0.680701640139503, 0.6038156943243447, -0.22538452574597836, -0.08712327232513456, -0.8077870305863074, 0.09533917895801139, -0.5207159465987038, 0.36716676654820596, 0.4982519140915381, -0.5230151864480781, 0.5370133252121227, 0.8638335758850975, 0.25568637964061164, 0.5831264730585515, 0.939231138679266, -0.5809401795887659, -0.9307906156343575, -0.44248620980419967, 0.6158027981426077, 0.7908985334465004, 0.31073113105000477, -0.7983606801596039, -0.3167184094960606, 0.8998636518103192, 0.24179356030926621, -0.5851975591273975, -0.11345749326622856, -0.6837397494315376, 0.8312544676384651, 0.3316573624409464, -0.8271714478532527, 0.6659180936352649, 0.040835826062926, -0.11980288794605287, 0.8771023259898164, 0.34464362411390664, -0.4799131962467009, 0.6387611027227773, -0.6756407006579447, 0.0322992840168831, 0.16362209307042916, 0.2905477045657348, -0.17027667031189594, 0.8985701533033896, 0.3831211851354444, -0.09958113988023143, 0.534285005350204, -0.8113108644809548, -0.2599961241459227, -0.6529381920219007, -0.42987831457067127, -0.25078435789813436, -0.14166132699955655, 0.5350421951742478, 0.41884362293846394, -0.263269168453251, 0.7736445084465133, 0.7250730544506329, 0.8361689208268389, -0.2755801507363562, 0.641546789993537, -0.79705516174086, 0.8188956062278897, 0.1166033148054273, 0.4884362911109516, 0.25265504568982833, -0.2634321830621086, 0.19995149572670173, 0.24537944728911765, -0.19950611897241863, 0.8916384524894266, -0.12732264227555148, 0.391317604416928, -0.32557913598228166, 0.824239480947607, 0.9423824855609375, 0.6317616641446551, -0.3777788923904162, -0.7198170182671763, 0.6992837116369532, -0.007791671704111488, 0.5158247037230008, -0.8197958189653266, 0.48988805547658626, 0.41826523575818764, -0.07533184610059511, 0.41527032023461585, 0.23979765584474513, -0.45881860236404165, -0.2554016573815468, 0.6819121008819782, -0.8074898857758421, -0.47323632365890156, 0.013909749484365797, -0.9319837087119378, 0.6593324604964697, -0.8565231767129315, 0.4525299933209629, 0.679334105177279, 0.08441023716217111, -0.46030805684080545, -0.02923283520180752, -0.3152921086996711, 0.5232284646893386, -0.8412339334868401, 0.7704146746482147, -0.7594367171303462, 0.24083264701460844, 0.6065052235029631, -0.7185719214119464, 0.7181667379226986, -0.43857019228742866, 0.08711928901722761, 0.3456509966882744, -1.0808051192813763, -0.4975826817294706, -0.5921801443812953, 0.03614741427275604, 0.2688668458405734, -0.4394283224076527, -0.2271524411301505, -0.9076746395631675, 0.5868481543844316, -0.7774625481615489, -0.15322927054740937, -0.6371726986910725, 0.5687559643401703, 0.4852365041533432, 0.8554935305260121, 0.07914717994806195, 0.8258448369453089, 0.9801967870688475, 0.9242491591529438, 0.257275830806602, -0.1299963185125072, 0.6856651935265916, -0.506653854444194, -0.8467911213955168, -1.23496010162908, -0.1777548960750375, -1.0066167060295135, -0.06865193998946931, -0.980332037396887, 0.7476192056632716, 0.005538451462558256, -0.4374804766930023, 0.6979410608015387, 0.10949236766532007, 0.5651511749446191, 0.03987369916114965, -0.5351068747403933, 0.7746011410991255, 0.6768015922853263, -0.12799268018174548, -0.7121435247537261, -0.6030541154346838, -0.9179827801946041, 0.42604273405269644, 0.2053947911246327, -0.8421403578747866, -0.820196149978194, -0.22129384241576755, -0.4730054812937137, -0.3190918350150063, 0.8473679361967281, 0.5961349612389253, -1.2177931979440664, -0.4399103256486786, -0.3514258425307091, -0.6138166512471611, 0.3952446608352227, -0.06006074362926554, 0.4115614612636122, -0.16362909607006784, -0.32113197749504524, -0.6477230086539978, -0.16282641480481588, -0.09769674630070453, 0.7770290891533972, -0.8343153352305235, 1.1846142679426706, -0.029203780021731334, 1.3016904871373995, -0.529797333247988, -0.08554809602339805, -0.08380911845275683, -0.7130572899912789, 0.26864877566316986, 0.8474822349727346, -0.06756457506500642, 0.9349338610787419, 0.18795225872769775, -0.7374455108930839, -0.05845890681138247, 0.37152575196499293, 0.4968139290764267, 0.570036030752071, -0.8305912341781454, 0.38242578130833665, 0.8334888893491684, 0.3890904102815694, -0.24070084626067104, 0.6320035620870714, 0.7049670436211506, -0.1257884805960449, 0.1835236917406358, -0.18192256072742696, 0.842356429193055, 0.21197658121682683, 1.3484580335382212, 1.301375670318161, -0.19987400824134435, 0.4656243068761434, 0.573083418104563, 0.560345204241351, 0.22697435888688786, 0.2289258826455579, -0.47995175183520894, -0.6881675494374889, 0.16929286561216034, -0.8647232175269189, 0.05867978389987669, -0.4339005689050078, 0.060562129564651415, 0.03526230897950378, -0.14727566523225682, -0.8603660584610789, 0.10649177033469681, 0.8025661577935361, 0.7767605002052315, -0.263493462493994, 0.6080562320645365, 0.07070838600370351, 1.3856784816906338, 1.0724654916516552, 0.7032434971199093, 0.27006667954055574, 0.1338168118042314, 1.3904606027273163, 0.7627734697050111, -0.31598530936028735, 0.07340123939696382, -0.4070973229206311, -0.510517660014831, 0.873214225070813, 0.48711067817257897, -0.008745612538402893, -0.7049230106823167, 0.8249789529621383, -0.9858523293190824, -0.6691867357627445, 0.0020492427961266587, 0.0573374262117188, -0.0022700181495235285, -0.7296429069840097, 0.8410382032259958, -0.4547249626088771, 0.23713248624894145, -0.5451943734490375, 0.7691555713651665, -0.031023252282749963, -0.26567671786157154, 0.9206080761891027, -0.19033775943776027, 0.6414988299327633, 1.2857761231907823, 0.4542069613935609, 0.9756613627506603, 0.8896658701312335, -0.5782907042658507, 0.811248364398978, 0.6693896203916381, -0.4270493928843364, -0.7353974753833965, 0.5715023884497356, 0.36833579855579435, -0.9492372391931171, -0.941823368641794, 0.4925694055456918, 0.5472436610011635, 0.6018833849470686, 1.0637882727455912, 0.5383196738930371, -0.02437805225531525, 0.18884872956237544, 0.03369168791509651, 1.1586754677449145, 0.9678948310544073, 0.33250162658770316, 0.8731032211872207, 0.4162412614568286, 0.23283306534750553, -0.26940493059941273, 0.44895985890365586, -0.6862113449568085, 0.2259278620394595, -0.22509657027732358, 0.2623620616309161, -0.5702738174899906, 0.5933380071256318, -0.11942032024591201, 0.18764130300348375, -0.31731908328098496, -0.7909992648743098, 0.024814303209428755, -0.03937021484647386, 0.7012827326589353, 0.6347034526940931, -0.33753252236806996, 0.8943129057280766, 1.5277371794602124, -0.04123240277146306, 0.8651155575698577, 1.0189287829192364, 1.0930686817404318, 1.2488730472982958, 0.9458851505201931, 0.24032320050058434, 0.631341456089967, 0.8824616130525688, 0.22618005002098007, 0.4392061188041238, 0.2873126335471714, 0.13944463915277816, 0.8232439583518895, 0.45171929239536257, 0.9377743813522956, 0.376552407044543, -0.4670101076338186, -0.8892065598381428, -0.7601003327813155, -0.15900830564971374, 0.04338970475084444, 1.2621941134203662, -0.44015844562073936, 0.12690304645180137, 0.99277462153678, 0.8877730777189962, 0.328832413398664, 0.8748794056311422, 0.7663085217306321, 0.5775018658104231, 0.6919346206928682, -0.3363573040962839, -0.18363889684841983, 0.37138072501875313, 0.393660237700423, -0.0639250660896627, 0.8098869040948317, -0.16957009406521423, 0.11671865736734402, 0.22542279465149737, -0.340408572784393, -0.7862652584916899, 0.6910982621299043, -0.21469229444424417, -0.58432182600593, -0.11433596131881926, 0.535844857170438, 0.6919330933123232, -0.21270379589026267, 0.9995750399279942, 0.4931438461527011, 1.5149957443473923, 0.3428935775749233, 0.3328634634659072, -0.27975517949749956, 0.024724369778171534, 1.041095504781911, 0.26829084900447314, 0.5675994702754996, 0.8626611463596096, 0.8403051295522734, 0.11464966451365498, -0.1450242987773304, 0.5706818125464875, -0.2489354315064087, 0.5047132526390856, -0.8286526070004211, 0.5874858178564281, -0.8796846109836142, 0.4619103692342019, 0.3381206089596819, 0.3851495425219024, 0.9187840926571194, -0.651267707943651, 0.3452719787976209, 0.4079404473999807, 1.3139105171499803, 0.47369712739532716, 0.27934351061904356, -0.5878374155071633, 0.18862063042231433, -0.27515052629267533, -0.33833311898231844, -0.4580868714744488, -0.5612852923063654, -0.1503231079512633, 0.13858379200022372, -0.09640670878251935, 0.49357559880754687, -0.276179768047978, 0.8433141802974115, -0.34903462726377754, 0.7164472638114693, -0.10245413224075009, -0.289715246041181, 0.06294308234794418, -0.8735813098382161, -0.9928657358301587, 0.7020132386469548, 0.40577421907799066, 0.6268641570180791, -0.5086522778270863, -0.38836162450375167, -0.666258567335921, -0.5551633423781275, -0.758532475428203, 0.8568649050988385, 0.5203251272702166, -0.7574127258982131, 0.09457193999587002, -0.7479979769969091, -0.7093987346116281, -0.5677344666517076, -0.023420337961315423, -0.4753955647015756, -0.4503601342413348, 0.40489842203170906, 0.5027751222159981, 0.1973632227171164, 0.6059985158994988, -1.2151571975297322, -0.7980737802150818, -0.7968077108379735, -0.0575278821694917, 0.5321439912115534, 0.8142055299446991, -0.7109505382668309, 0.7211918348581109, -0.1619012546240308, -0.7396647810929743, 0.04024392071357837, -0.3726887062383866, 0.19758703400367833, -0.6677777912468984, 0.2572580759239168, 0.09123293663350861, -0.8174376978439595, 0.03012657650410587, -0.4300526291477505, -0.8313824806895908, 0.6812070220639943, -0.6005039471838736, 0.42622114044990733, -0.24524598215903626, -0.561255105852937, 0.4091046701322276, 0.3301458054111555, -0.44022039629730864, 0.42220831361438943, -0.47716590761707606, 0.7874490676754237, 0.6943165569277384, -0.7186294610939393, 0.8755135686550096, -0.7686477057551677, -0.5809504427627197, -0.5578068577459779, 0.12462232219345519, -0.14054281405720334, -0.6228407167985499, -0.364320468798944, -0.7380316026172529, 0.5001228913750616, -0.637763987365653, -0.9267926647394253, -0.4227302258065034, 0.1605384162000231, -0.920324917557557, -0.3360847541909736, 0.46087041190726835, -0.5858593411089255, -1.05912862922191, -0.3481610239832691, -0.3380761438970773, -0.8898863609735171, 0.4255657508691808, -0.1428550150347463, -0.6338682187862578, -0.4432214663801958, -0.8785543250874793, -0.6556844028223812, -0.24414208178783536, 0.8082584139991391, 0.19072735903976626, -0.8422869211321453, 0.31810068064311187, 0.1393607092591739, 0.5985513043545324, 0.523866815748909, -0.26351361100686016, -0.6673227596701015, -0.1611934608819406, 0.1579601396006219, -1.0394306391468697, -0.5251885864867055, -0.4536124174212771, -1.1449381012491404, 0.3451654558114203, -0.1378359396564507, -0.08249092797173829, -0.536602055805256, -0.9973323408099889, 0.2663533109799981, 0.44743500603946224, -0.005512653705316049, -1.1524777443049123, -1.0586359129714298, 0.4299764433613959, -0.04127661863379505, -0.8386968685003241, 0.4286555067805247, -0.9336316048340757, 0.7178538775639675, 0.588144049747366, 0.9681563320091637, -0.7835792160397278, -0.7077928555897437, 0.37451053083603886, -1.0455803004661401, -0.6761227597500572, -0.13826794045172036, 0.018365821165669444, 0.04518390009619281, -0.29953401132239577, -0.9826663098950756, -0.05033289941709064, -0.2710655606914908, 0.19600806504753193, -0.23104193286700858, -0.21078765845195546, 0.07244527477538291, 0.2049758860287866, 0.20903801533093838, -0.1889003736538576, -1.3510116504251894, -0.8129783553898059, -0.14685621197142232, -0.08713351098554124, 0.9503570045373638, 0.9746142392956116, 0.3475467805413532, -0.7552911104007933, -0.7714674459856384, 0.9958548131307025, 0.6180375232565462, 0.17282418294010538, -1.0865785903348208, 0.13325144324354923, -0.8736605642227515, -0.32433213173074027, -0.34310071699311856, 0.7074077866477608, -0.6696309276576585, -0.872189824388063, 0.6035910762428596, 0.4590780350188159, -0.07750222376337541, -0.45335022558348137, -1.1473665663238688, -1.0370347922849683, 0.2930610986628575, -0.5533463683145579, -0.04645227510407451, -1.040330000689998, 0.7957742356921049, -0.052222424410503294, -0.8195261915867577, -0.3907240359191118, 0.559224272844957, -0.5173752473101575, -0.9380472732663491, -0.7532909886483611, -0.5079317807461038, -0.7813108532598978, -0.10159992389567436, 0.10111177005495252, -0.6332117236663708, -0.46896972519727775, 0.16080015259837085, -0.6032952363946731, 0.8900976086765472, 0.027151432003370158, -0.32574667741282665, 0.7472651971631185, -0.5537834807083905, -0.37420609807935756, 0.37967683591034085, 0.3949740021676764, 0.04208076756812027, -1.3313250849558533, -1.1916403999996712, 0.24144984923819215, 0.4926651129011802, 0.33619750411201943, -0.7992591375376501, 0.44793403933681347, -0.8382191018354604, -0.46040309145677016, 0.7816673816240377, -0.5416112441113806, -0.11234475811159504, -0.5832989679637408, -0.42752971471573414, 0.2935074900571985, 0.03965120175698441, -0.9958066008972422, 0.525878413979751, 0.5928721065380251, -0.08342790288306746, 0.6103575086999633, -0.014640788636999615, 0.2389786410416695, 1.5621940236528655, 1.019066891724786, -0.3014808722336946, 0.6026980259374173, -0.17857192534596644, 0.6817800987591593, 0.7655389191756304, 0.1990221515880744, -0.2861777863690835, -0.4792646510372899, -0.10554403024806117, 0.7309159379354133, -0.7223482617361068, -0.3431228820743734, 0.027882854561503523, 0.11752545012174866, -0.6837111916510762, 0.38013788036199486, -0.5566157539109916, -0.4385280343078326, 0.5176576138217975, 0.07652405891140555, -0.09479751406130685, 0.3386499137823496, 1.3966082269310827, 1.2662362705027161, 1.3693193496551221, 1.1131082819275218, 1.4577353442575358, 0.32485811117972857, -0.12266706468890246, 1.0362325436411377, 0.38766969131219575, 0.40346016425231024, 0.695450708416046, 0.41432724118243336, 0.897760219125767, -0.20991322235399745, 0.7922635179546533, -0.5292935422599243, 0.01018000051473472, 0.9930956584934771, -0.35689971176092405, 0.34048248328913205, -0.13473005430568963, 0.17466451003033012, 0.2021823315087952, -0.03650826593439206, 1.0821661152385895, 0.42461209478054995, 1.181155886955256, 0.04450081806926953, 0.7719572925425905, -0.5122783702682727, -0.29471919072157193, 0.2736843880997965, -0.2186669437883607, 0.005627501357279265, 1.2084162406886798, -0.30094844335558696, 0.67221846253769, 0.4453346506399383, -0.5965973745619888, -0.50059506995712, -0.4467916184670248, 0.12437467557248658, -0.9578640608876718, -0.2729115696445234, -0.2443791736336932, -0.8536485305916376, 0.8898117733023502, -0.4431497605481511, 0.046379441308264484, -0.16049919453417583, 1.053378521779124, -0.6463489183932896, 0.2174268040901368, 0.16075885021874697, 0.11703972748889507, 0.8275385784418919, 0.8187731050553507, 0.4589852208677358, 0.10849149572951783, 0.8471859170765406, -0.6764951113905608, 0.24283650054255126, 0.15793248553649114, 0.7623196201922454, -0.8446379877594441, 1.0165768354443334, 0.9438732366060296, -0.053082081239318346, 0.11205033075771213, -0.5740412133754266, 0.7905818123946091, -0.6832845083426882, 0.03341638482585296, 0.9591531070611421, 0.47777123507295866, 0.5690506809250745, -0.21239808630956508, 0.2927645466428867, -0.9509782761020492, 0.9873074396652886, 0.7454285194138468, -0.17848473871535123, 0.26390095044216383, -0.742028655804221, -0.606354694718091, 0.10279376168089496, 0.7102545053655633, 0.8680808181292842, -0.6561121652907942, 0.3788824466842185, -0.5195909849966873, -0.9465748391141485, -0.45000049734288383, 0.10386444069854081, -0.20076487252129846, -0.9117334302966509, -0.916303876334368, 0.7918783082872214, -0.3321027823006057, -0.6697525669949314, -0.4834754008645225, 0.3604684646935162, 0.8172060584280219, 0.761868801331518, -0.8844378032873931, -0.09009664568932105, -0.8745765641709546, -0.9877048351123102, 0.9037308234969733, 0.7587625752258986, -0.8326648460061056, -0.5228591457621258, 0.12461269547287401, -0.2867735448479521, 0.38250763804052, 0.6626199080105654, 0.1771684865233915, -0.6306726697783448, -0.08097909208814391, 0.17738107200134837, 0.0625825523983978, -0.36864356696156514, -0.2926743518289214, 0.8077398069235855, 0.44895207661978304, -0.13927491440043174, 0.9952036022433108],
      [0.5799354102217061, 0.09458573129481931, 0.9448546756408328, 0.6927616500015384, 0.792573424087546, 0.4580694064780328, 0.38011561381926223, 0.050481796587171744, -0.7527459982908599, -0.2759853906811008, -0.8562479590431803, -0.9243963622104433, 0.892462676735737, -0.9225876468412398, 0.18881590552724914, -0.22337554105149754, 0.8701106957230501, 0.7805524232917743, 0.8293967094524083, 0.37023847068481713, 0.9573414601941449, -0.5425702109396987, -0.3057784967923603, -0.12230662408798465, 0.6682469692235377, -0.3456839579581135, 0.06398540252041882, 0.6517606469657587, 0.3797515227133112, -0.30511454938227317, -0.8135518646124092, 0.3648732979559112, 0.39672424286799773, 0.4304560585013188, -0.6024667667727762, 0.02873223297721038, -0.12131796022648138, 0.44609553192127105, 0.2780424759282488, 0.2474038228685186, 0.8054536291054394, -0.5168526565167626, -0.38031407303997067, -0.64682681838405, 0.8091260218149237, -0.20631658952411847, 0.36846074826824377, -0.22143687781368754, -0.0796250310501629, -0.5422850830624998, -0.6742128071001914, -0.015860373855876523, 0.6399366318843632, -0.0223744427546568, 0.3048529506740402, -0.5936598979075763, 0.42766949598638865, 0.36340725022414205, -0.7744739224235009, 0.5372482811427853, -0.0034991235545196887, -0.3340616048668104, -0.8906694113562502, -0.029645304188704164, -0.3950129913851401, -0.11462183489675233, 0.648488856031456, -0.5392879346083227, 0.5213623464460031, -0.5834410220006787, 0.09185702378247537, 0.09285828179398037, 0.5175441683151505, -0.3581490758938765, -0.24010151984826308, 0.8205311278269545, -0.6538756189893719, 0.4730367615074853, -0.41836099780274155, 0.33270313077391944, -0.1336979709410921, 0.48403450207615734, -0.7206653790746528, -0.7012287648772618, 0.06267304958537305, 0.4219578161737442, 0.19151251181374304, 0.975590308620973, 0.6813057029926212, 0.14364446373593437, -0.45303681196279616, 0.39337600734632744, -0.7838466114531689, 0.7970705856386288, -0.8427810552427488, 0.5197246747606665, -0.2822280328562314, 0.7842676647518199, 0.13332009760319447, 0.9759909201598747, -0.18773659541231688, -0.5493095517733179, 0.6894847920590427, 0.5048267579685172, 0.2833711776991036, -0.029904961378906716, 0.22730040675853175, 0.7897441788132114, -0.15997739507960923, -0.2002197781209528, -0.6271735310956231, -0.49069936745426973, -0.7024826728870476, 0.9887471611642571, -0.6110538568519801, -0.27472550838027354, -0.7919451802586476, -0.014987480052826302, -0.666457653796963, 0.3818135106371889, -0.22152513198272206, 0.5779438848262275, 0.17762702905826838, 0.6033066410316928, -0.5130817594778654, 0.8473041419126315, 0.24855041933422634, 0.6474685840638054, 0.7415788900374858, 0.33883536319672164, -0.4460944347057935, 0.5013857384067505, -0.04713906299356189, -0.3883615497128867, 0.9678728351084687, 1.0496919196844954, -0.8364388108998232, -0.6452019397609606, -0.8345950541708209, -0.039755281772973085, -0.9542809799522779, -0.09636923638262804, 0.7060336702251206, -0.47578784744111713, 0.11903862604713515, 0.7901554348971376, 1.0822251809237096, 0.7047310177931428, -0.24735776585069819, -0.6944077959879258, 0.17886263898006158, 0.3770314405932628, -0.7037031415498305, 0.11012313950093496, 0.6476836237239787, -0.5982933008933028, 1.1561111464802873, 0.3890587268666795, 0.7067558354424244, -0.24169593460604955, -0.39123307282202086, 1.1389476729397108, 0.13651850449017583, -0.44982228527047724, -0.6145148411318722, -0.048935180479942365, -0.5593228062850153, 0.5985348302736345, 0.5478227627061637, -0.9559031988817014, 0.6081233489002298, -0.10937481648912366, 0.3906286731144407, -0.42920469159727104, 0.4882460456731473, 0.4362991882429106, -0.024788116361388935, 0.5508050747826959, 0.6022651292145705, 0.1692728602324057, -1.0790845373154088, -0.572064675366473, -0.002244044380754718, -0.34561712367228264, -0.2801663102784292, -0.24536104759871594, -0.1734158575287252, -0.37682102161664216, -0.19771829227343254, 0.46838953107136405, 0.03312181182421836, 0.4312107356343377, 0.04445661580506119, 1.0781552388139262, -0.6527289325418172, -0.20630695421590428, -0.413124354697224, 0.7027334599775498, -0.08068647663408744, -0.3695795820305991, 0.555438524995828, -0.9883879521643495, -0.23327846851833733, 0.8856678815682705, 0.5816013077078086, 0.3402116725612555, 0.06819227571260271, -0.7333569315874062, 0.19284296796300224, -1.0762487930533549, -1.3749555276990846, -1.2916257117573704, -1.449765727014186, -1.085701969064243, -1.029017915750746, -0.7111940838877591, -0.04030343238238067, -0.6063606884304983, 0.4257718335340486, 1.1790123826321048, 1.0792170982597376, -0.25148917326258674, 0.040740117330797916, -0.47182075404300466, -0.9675365261153631, -0.33697230162998526, -0.1874216463923225, -0.9980527156653953, -0.6819769417000137, 0.0016996593947449122, -0.1345702682561848, -0.578682816617483, -1.2329210381942166, -0.17029378335511494, -0.8224473123188611, -0.8552766249527674, -1.0592775127011163, -0.6716921439168424, -0.10543950040609346, -1.3008643678945029, -1.2696127226297433, -0.46925859365929695, -0.9477395272933324, -0.15493893706512069, -0.1646075621914953, -0.11932112531261443, -0.4528558404875526, -0.0005798265981932407, 0.2540794546610909, 0.7034468444716688, 0.8739614606017198, 0.45003963386905493, 0.81048480106003, 0.1354063521993903, 0.32043410620770274, -0.6169582822751999, 0.7467857609480058, -0.6303299962677184, 0.03897294353610136, -0.423855729538885, 0.5408655868212942, 0.5596757740093742, 0.7283634742624133, -0.6604132844280872, 0.01615641037830428, -0.634917205651363, -0.9269324035733162, -1.5949380825604067, -0.9034020803673932, -1.1572411511729812, -0.11125918746968243, -0.3795170186967096, -0.13567175438149764, -0.8416733830226328, 0.2159965821418777, 0.35654263339306286, 0.27334867891072673, 0.8106346566101075, -0.5592964099256055, -0.5851074868342273, -0.9701357446569882, 0.35207423998383236, 0.2649663494292648, 0.1079786143791449, 0.593962820139649, 0.7532962155935161, -0.7145583790142211, 0.5495751584518167, -0.15846398743058437, -0.3153844419346977, 0.4913451069174249, -0.766085385222282, 0.003298281561299934, -0.4374810170155834, -1.26570991831335, 0.20949750901887057, -0.4295012193542987, -1.1290654181721596, 0.17358868858991658, -0.4463688363548656, -0.9183648930470593, 0.19991072387251513, -0.7000613285418611, -0.816937699443948, 0.5171047967829957, 1.0044978992464144, 0.9069654088378631, -0.6719105687958207, 0.9649446753164811, 0.7717759091723, -0.753965239909876, -0.4737908724828763, -0.7476419926285643, 0.23858306640261784, 0.18424463354753126, 0.32873708093508563, -0.3789180190277982, -0.45162668834527514, 0.3915827157925087, 0.5291511202938451, 0.6481643689551069, -0.6459810493767382, 0.5663930740957599, -0.9905309405324748, -1.0371275889812883, 0.04970753226408569, -0.8170473090018487, 0.14647156531796943, -0.434839542726827, 0.6964401301344736, -0.998892519942656, 0.32283801229870285, -0.4878065122151959, -0.47797250879766445, 0.6102746725906607, -0.19418097288309805, 0.28211036278920704, 0.9331018141376571, 0.14765333595595767, -0.6666334607094778, 0.35151534380139515, -0.6210901476217865, 0.446140739971714, -0.6185328765567197, 0.2886105283289947, -0.3359982992842005, -0.33605127593298834, 0.4416671739031093, 0.19097479328197758, -0.09075506628439854, 1.1144300574743942, 0.4941796962871522, 0.6275010947280448, -0.7780307475786092, -0.5444974074123812, -0.8129492917615224, -0.02484546637498339, -0.1572756271989578, -0.10131960891387218, 0.5226108623155131, -0.5863940851177704, -0.0786076443001583, -0.01942522640589986, 0.12620137613723104, 0.2363761042989604, 0.8834610482822596, 0.08621489052918313, 0.5674490878733244, 0.31368965860360953, -1.0317085779537607, 0.3763198915344065, -0.41142393002589506, 0.5013715447934555, -0.013083621834730573, 0.0779783033650909, 0.819208850337758, -0.02088192303413013, 1.6319535206572462, 0.3251345418415538, 0.9821612316306559, -0.04936194119426606, -0.3657330312983561, 0.542527655861255, -0.8404457189995663, 0.3116601834933507, 0.25883334220733656, -0.3636635403684247, -0.07304759012620884, -0.14501464506540548, -0.6046607001732549, -0.4524560288521331, 0.3446369579660206, 0.7698726446221266, 0.866994536651602, 0.6420947829705902, -0.05570907017439646, 0.1670162831015476, -1.0350046009660923, 0.6061103103292675, 0.18780330407744475, 0.7495765020874473, -0.8800691747477316, 0.6340412003345888, 0.9740422720057705, 0.7194561578202673, -0.14321303771510746, 1.7414680610905748, 0.6835335081122497, 0.06874566196314212, 0.3029766964193556, -0.5377201306864177, 0.3256073467032034, -0.6070774169411521, 0.06620257494423043, -0.7164547380530258, 0.3479819300486962, -0.49409351957983894, 0.9126688636263709, 0.7006592411700795, -0.5401418535764045, 0.6988942320639505, 0.7458819156409359, 0.57718041872698, -0.5360585280524568, -0.5746578194712826, -0.3414913705928807, -0.2661109427618748, -0.03835882819096623, 0.23144352081843145, -0.05069482406169678, 0.6177549388358609, 0.31914591923167, -0.36427530706314465, 1.8197927500199003, 0.7011404956980802, 0.2000669884296739, 0.2082139469115999, -0.18449642334783412, -0.0524548276757689, -0.5334877362655972, 0.10098963233071484, -0.6611029670841468, 0.23504632302500672, -1.201236325213958, 0.6203633149832254, 0.29428860161997983, -0.00802105007778567, 0.6011545888230894, -0.1223237463290675, 0.15366118428729186, -0.45912771339767355, 0.5635350020224428, 0.29355370431817807, 0.389827508703549, -0.21007853835973386, -1.0759607958554362, -0.05526857935286671, -0.1033353014703546, 0.3040225304673798, 0.09550721323294072, 1.3553202554958799, 1.286455978646724, 0.5712993160642413, 1.3913780523880952, 0.53959358558404, -0.11009018240171267, -0.32120013778759965, -0.6099928611304238, 0.013164577979488865, 0.38211522845413515, 0.2274967533084123, 0.7641776920305253, 0.5565610703722081, 0.7973743295373903, -0.6354363580561506, 0.8960312388243135, 0.9117285515816692, -0.884983550739422, -0.9180028640934731, 0.31055357209156914, -0.15827907661992752, -0.44947449340684664, -0.8361407719585603, 0.9004348665939739, 0.5538434062141974, -0.12092193333206598, 0.6849843989659107, -0.1290012160618279, 0.635056408745878, 0.10342393685184022, 1.6778157243069214, -0.30193575065680384, -0.2247178088183938, -0.17497120521538168, -0.5404808057259144, -0.8349320280392714, -0.18311973408175322, -0.38629757102978335, -0.9042498037679199, 0.9024648842078546, -0.20700792041920418, -0.26819097948399184, 0.1143524795966969, 0.401048389664092, 0.6925165929186032, 0.964878605077485, -0.3578076921075034, -0.3796621201450558, 0.5304127408149758, -0.9768872938899315, 0.253214160857675, 0.3303873169020139, -0.6252831209534401, 0.8003986012422167, 0.870291487512636, 0.510558095395328, 1.2358083565820224, 1.101516086625316, 0.21943153836451845, -0.8224444581368534, 0.6084037405450173, -0.09820537778792625, 0.5163407526398881, -0.46248522264684566, 0.9227429601230045, -0.7528838381053686, -0.20612272594901562, 0.5936278913480405, 0.6049386677586598, -0.2703295692064994, -0.7124504119080401, 0.887289748173402, -0.7361605064506035, 0.19433704600203452, 0.4949116914315761, -0.9193595981749441, 0.8067741632406323, 0.9387441358183263, 0.6864291499691485, 0.9499068968032458, 1.3862029640949647, 0.8273321201026345, 0.4363354889798607, 0.4264185698876102, -0.14807263364342693, 0.14226618545985703, -0.6265243741229345, 0.17323506128957947, -0.2553110721959929, -0.9145030626791011, 0.05827721554703112, 0.7216565119945154, 0.053019131791219434, 0.3761892949823179, 0.6096990136775887, -0.52570093338567, -0.48362870970258953, -0.3201118250838079, -0.5028006766119915, 0.9092347113823289, -0.1480922416038563, 0.02522843840203588, 0.3808701652918046, -0.03556229872463268, 0.9463533324354735, 0.039133359595619074, 0.5350393805226169, 0.05684728497735275, 1.191335598850862, 0.8888914424366757, 0.5936949568576572, 0.7469950619704622, 0.187846491124139, 0.4088947176287897, 0.18749778586771526, 1.006601110640005, 0.08918644080916671, -0.013606619040151695, -0.40441380069982835, 0.04899810546165547, -0.6360972885897009, 0.7735096171626298, -0.1806122879214134, 0.5131311717196074, -0.5108098178443254, 0.5411391379652565, 0.43479382007481604, -0.017875020492818156, 0.40404059848947965, -0.13272493050331985, 0.020321157102660466, -0.04916939051448796, -0.20999247325748527, 0.9603239015224159, 0.4200127355141239, 0.2271719621710275, 0.42180248073423626, -0.41171268659552845, 0.07425707813000788, -0.5838275378490023, 0.9043460506009293, -0.0036270933552458003, -0.23286381939328396, 0.3134332819043165, -0.3936277277544613, 0.6849045508788876, 0.5541936873653976, -0.007939774829201886, 0.7549708565326566, 0.3491453793912212, -0.3865590242281544, -0.338052944676108, 0.934406032319499, 0.5667722687068898, 0.2652547588039388, 0.43751154305625833, 0.4443137372726481, 0.4802442030143296, -0.38255836205155946, 0.8683039024904917, -0.3918888010505325, 0.07871543236872418, 0.3148961483794985, -0.13032436534659683, 0.05854344041487422, -0.86648802676477, -1.0337338775421308, -0.13171486484583622, -0.5834815967641078, -0.6090172275924749, -0.25860006250901146, 0.16083429633394683, -0.7002497511795293, -0.6336523209127318, 0.9521536474324619, 1.085469879904732, 0.3208328698945052, 0.3151023493271988, 0.3946421287721457, 0.6450137606418165, 0.8761877132423708, -0.7135093397428671, -0.6466300056600396, -0.9441827447915548, -0.9486771196852041, -0.80440492081592, -0.8440471542497242, -0.022201392731874714, -0.10213960833339006, -0.13075821672229707, 0.1534101312481048, -0.4802449999116295, 0.1348768595431285, -0.6343052280720125, -0.002286167328270493, 0.35100142305849696, -1.1714710464295832, 0.456519932388591, 0.5588863910000881, 0.18447003879094911, -0.3913761004702578, 0.8281945493683204, -0.03744835332649813, 0.06425450367049934, -0.6071612081732943, 0.5699100414310629, -0.30754122285417734, 0.11490625454621724, 0.7692600772959423, -0.7867537655923426, 0.06131955023519144, -0.6909870497076386, 0.8153006126087067, -0.46284652111637287, 0.03134176930203852, -0.9813518059485609, 0.75075500298022, 0.29643602855126266, -0.477460026585263, 0.15476407924561875, -0.8343033749598531, 0.5108159588701865, 0.43993355511683374, 0.540037357596126, 0.28950763595506057, -0.4715279664250596, -0.3422443161690033, -0.1871604088901664, 0.12545372394725968, 0.14817486585520975, -0.20370473117212434, -0.022917748326326558, 0.6835159162855459, -0.016311793646244417, -0.4326139079053458, -0.614810343392735, 0.5416432010875895, 0.5510736494024108, -0.07401633826257248, 0.7524744549411627, -0.7074440957429883, -0.7810650905049575, 0.5987359553436608, -0.5208853625671007, 0.15823228222119623, -0.9543463902981895, -0.4373407769212485, 0.18189726818144736, -0.9799189722073095, -1.3991352740907472, -0.9764400100268231, -0.30708423579643496, -0.6351978057330091, -0.2987702187946227, -0.3672247539749984, -0.7006590986059907, -0.9142271167957827, 0.0058780432712970815, -0.2077455862671573, -1.1034604554926635, 0.2208683274703427, -0.9373252548062537, -0.23999447628689827, 0.8352132805867026, -0.7711424051283882, 0.8631711250136921, -0.5049428511588628, -0.0003920749315797444, 0.9160210629291704, 0.4108971428190313, -0.44270166349400913, 0.4688260894534339, 0.15192680181594637, 0.32049345027837634, -0.027655823855460736, 0.7648667148029528, -0.7129116849526013, 0.027445687804120485, 0.7853309570084501, -0.7048149033907951, 0.3873241423931295, 0.09784014979743857, -0.8787118609810347, -0.10852584308240013, 0.43052259856077874, 0.33792363613570353, -0.8367896051357903, -0.0640412932871825, 0.6286712512308578, -0.24641193204662526, -0.19213221263249308, 0.7073654842978321, -0.7684958772587945, -0.07091194486470741, -0.8681939035580134, -0.04349789621993664, -0.2771114994711806, 0.5866949117413437, -0.9387866846125837, -0.4606585838095783, -0.3405959073345006, -0.7436111943825269, 0.7261084715033924, 0.058665159835917156, 0.27182482894988824, -0.5928918304145011, 0.10038642462179385, 0.09096998791766604, -0.5899256841174654, 0.35933448316376354, 0.49269172498659386, -0.6150023699764728, -0.560320542338474, 0.3954998667612267, -0.8033796773858007, -0.6928034971325543, 0.07998327640663383, 0.44062844844365656, -0.36462867019114004, 0.36466734589254013, 0.21882859241723246, 0.9650726694273558, -0.024061571263254335, -0.721191398304683],
